tree
version=v2
num_class=1
num_tree_per_iteration=1
label_index=0
max_feature_idx=47
objective=binary sigmoid:1
feature_names=API age bar careerPlace changeInOddsMorning changeInOddsNightBefore class distance distancePlace distanceWin gearchanges goodPlace goodWin hcp horseName humidity jockeyLast25PlaceStrikeRate jockeyLast25StrikeRate jockeyLast3Months jockeyLastMonth jockeyLastYear jockeyName jockeyTrend lastFourRacesPlacePerc lastFourRacesWinPerc lastStart lastStartDistanceChange prizeMoney raceNum rating runnerID sex slowWin starters temperature trackRating trainerLast25PlaceStrikeRate trainerLast25StrikeRate trainerLast3Months trainerLastMonth trainerLastYear trainerName trainerTrend venue venuePlace venueWin weather windspeed
feature_infos=[0:542.79999999999995] [2:12] [1:20] [0:1] [-0.91791044776119413:4.0999999999999988] [-1:1.9801980198019802] [0:74] [800:3500] [0:1] [0:1] [0:1] [0:1] [0:1] [49:71.5] none [7:100] [0:1] [0:1] [0:1] [0:1] [0:1] none [0:10.454545454545455] [0:1] [0:1] [0:9] [-2550:1900] [0:19290425] [1:11] [0:401] [1:68956] [0:5] [0:1] [3:20] [6.7999999999999989:38.899999999999999] [2:10] [0:1] [0:1] [0:1] [0:1] [0:1] none [0:8] [0:21] [0:1] [0:1] [0:9] [0:63]
tree_sizes=1685 1716 1723 1713 1725 1718 1703 1714 1725 1732 1715 1715 1725 1726 1746 1732 1726 1721 1721 1749 1738 1732 1743 1715 1731 1739 1714 1734 1731 1731 1710 1720 1713 1740 1712 1747 1719 1710 1742 1692

Tree=0
num_leaves=21
num_cat=0
split_feature=29 29 29 4 29 4 29 29 29 23 0 4 29 29 6 13 33 5 37 11
split_gain=1907.77 583.945 251.074 107.312 80.7216 46.396 44.1516 38.8415 35.09 29.2003 30.0846 28.2659 27.5481 26.1413 24.8617 28.9843 27.7023 29.284 25.0863 24.6025
threshold=5.6250000000000009 2.9499999999999997 13.500000000000002 -0.025320512820512498 2.125 0.046536796536796009 6.5499999999999998 4.4500000000000011 3.9499999999999997 0.62500000000000011 9.0500000000000025 -0.306907378335949 22.000000000000004 1.4249999999999992 58.500000000000007 56.750000000000007 5.5000000000000009 -0.058481532147741995 0.23669467787114803 0.31530214424951208
decision_type=2 2 2 2 2 2 2 2 2 2 2 2 2 2 2 2 2 2 2 2
left_child=1 4 6 7 13 14 -2 9 -5 10 -3 -8 -4 -1 15 19 -17 18 -18 -6
right_child=2 3 12 8 5 -7 11 -9 -10 -11 -12 -13 -14 -15 -16 16 17 -19 -20 -21
leaf_value=-1.4160491168652372 -2.1710078501268857 -2.1081481839167777 -2.2708855805106065 -2.0874052684414668 -1.8395067006728179 -2.0386917268455571 -2.1820607065079778 -2.0960469583627517 -2.1712882504924464 -1.9460595165402641 -1.9908548888094988 -2.2362445365114181 -2.3023831491956894 -1.7388164974307316 -1.9851793317543733 -1.5581504189267288 -2.0975553614458589 -1.8245344034034574 -1.6612719520553851 -1.6285075853422666
leaf_count=31 1790 488 5529 775 135 210 1258 1341 2024 451 495 7730 7163 312 140 25 115 149 17 115
internal_value=0 1.56026 -0.453587 1.09603 3.63201 3.10765 -0.0773361 1.56317 0.632898 1.9467 1.62268 -0.173085 -0.773097 5.01707 3.52434 3.84227 3.15045 2.8496 1.69985 4.68905
internal_count=30293 6823 23470 5574 1249 906 10778 2775 2799 1434 983 8988 12692 343 696 556 306 281 132 250
shrinkage=1


Tree=1
num_leaves=21
num_cat=0
split_feature=29 29 29 4 29 4 29 4 42 0 4 32 0 11 3 40 15 29 40 19
split_gain=1414.84 302.4 184.76 58.0695 41.6666 32.9919 32.288 21.4707 21.1293 21.0581 21.7827 21.0549 27.1956 26.542 20.2561 19.5989 19.6395 19.2567 19.0273 20.0468
threshold=6.2500000000000009 3.0500000000000003 15.500000000000002 0.063164893617021017 3.9499999999999997 -0.048809523809523497 2.5500000000000003 -0.20550527903469049 1.9935064935064932 77.15000000000002 -0.47871376811594146 0.44097222222222204 9.0500000000000025 0.34428879310344812 0.24037037037036954 0.12284141726866152 75.500000000000014 8.7500000000000018 0.11652310387619504 0.13188405797101402
decision_type=2 2 2 2 2 2 2 2 2 2 2 2 2 2 2 2 2 2 2 2
left_child=1 6 5 4 11 9 8 -6 15 10 -2 12 -3 -14 -11 -1 -17 -12 19 -15
right_child=2 3 -4 -5 7 -7 -8 -9 -10 14 17 -13 13 18 -16 16 -18 -19 -20 -21
leaf_value=0.1916741139197741 0.073201161248800148 0.11929282902739476 -0.07863593451693264 0.031673778876117088 0.12305405115080624 -0.034171806747521766 0.18627203390865388 0.065973486875108997 0.43804376232962228 0.49109990301536605 0.020832953642090334 0.077708323766522439 0.28561565667740374 0.44883595869267912 0.065278219937964191 0.27953209007974522 0.51532660896614368 -0.022342849273153866 0.051416391305583634 0.038898964578778499
leaf_count=225 415 442 11081 1812 942 5964 656 2453 61 19 1853 283 284 29 39 411 32 3169 104 19
internal_value=0 1.13638 -0.463728 0.815885 1.00562 -0.166833 2.35467 0.820647 2.76155 0.0209731 -0.000474099 1.51264 1.75367 2.29588 2.04814 2.61372 2.96131 -0.0625213 1.25415 2.87089
internal_count=30293 7753 22540 6368 4556 11459 1385 3395 729 5495 5437 1161 878 436 58 668 443 5022 152 48
shrinkage=0.1


Tree=2
num_leaves=21
num_cat=0
split_feature=29 29 29 4 29 4 29 4 38 26 30 20 5 22 24 12 1 39 4 36
split_gain=1087.78 199.268 145.404 44.6151 34.9155 28.1896 21.4782 19.3801 24.647 18.395 17.4148 16.4177 16.2452 16.0734 15.9409 15.3452 15.1271 15.4717 14.9385 23.2101
threshold=6.5499999999999998 3.1500000000000008 16.500000000000004 0.16152751423149905 4.4500000000000011 -0.12499999999999949 2.6500000000000008 1.0000000180025095e-35 0.12891006842619704 232.50000000000003 68670.500000000015 0.15258697591436152 0.037749287749287007 1.6485294117647051 1.0000000180025095e-35 0.6547619047619041 4.5000000000000009 0.10050505050505053 -0.34118625277161801 0.54006410256410209
decision_type=2 2 2 2 2 2 2 2 2 2 2 2 2 2 2 2 2 2 2 2
left_child=1 6 5 4 9 -2 11 8 -8 14 18 -1 -10 -9 15 -3 17 -13 19 -6
right_child=2 3 -4 -5 10 -7 7 13 12 -11 -12 16 -14 -15 -16 -17 -18 -19 -20 -21
leaf_value=0.17515327438651268 0.0035081678496821354 0.066466546334955454 -0.07689478309684257 -0.00089926887758759217 0.092366019958670526 -0.032528379070258975 0.098664211187732664 0.029051518461775706 0.20870509766670078 0.013022275037347162 0.29568943228372963 0.078053223709040997 0.4842886927524287 0.23564143518270148 0.13370555659019179 0.20871149495337959 0.34645456444924633 0.25403389020286754 0.044630699420939002 0.44465908168747803
leaf_count=585 3842 799 10687 1021 353 7151 216 188 220 196 30 47 17 38 1149 73 81 141 3440 19
internal_value=0 0.873389 -0.465011 0.623607 0.722186 -0.196099 1.73869 1.34925 1.67609 1.01987 0.532697 2.00575 2.29866 0.643421 1.10576 0.791856 2.53291 2.12553 0.513703 1.10433
internal_count=30293 8613 21680 7080 6059 10993 1533 679 453 2217 3842 854 237 226 2021 872 269 188 3812 372
shrinkage=0.1


Tree=3
num_leaves=21
num_cat=0
split_feature=29 29 29 29 4 4 29 4 29 4 29 15 1 12 20 5 3 19 11 25
split_gain=854.652 133.698 133.456 35.4084 28.6747 24.0668 17.7135 16.8992 15.8241 13.3741 14.728 16.2829 17.5786 16.2937 13.4494 17.3655 13.9702 17.7157 12.5796 12.3875
threshold=6.5499999999999998 16.500000000000004 3.9499999999999997 2.75 0.16542288557213855 -0.35198226395409443 10.500000000000002 0.063164893617021017 22.000000000000004 -0.149074074074074 5.6250000000000009 52.500000000000007 5.5000000000000009 0.5941176470588232 0.12012658227848053 -0.31357916300848648 0.23013871374527053 0.094494047619047519 0.78174603174603108 3.5000000000000004
decision_type=2 2 2 2 2 2 2 2 2 2 2 2 2 2 2 2 2 2 2 2
left_child=2 5 3 -1 9 -2 -7 19 -3 10 11 12 14 -13 15 -4 17 -17 -9 -5
right_child=1 8 4 7 -6 6 -8 18 -10 -11 -12 13 -14 -15 -16 16 -18 -19 -20 -21
leaf_value=0.15539481336562633 0.027008862389103685 -0.054052361178949127 0.43899709515355367 0.11869019191879358 -0.012019736317010301 -0.0098995212351748116 -0.039283720817980816 0.033030464281063474 -0.084154154337287332 0.039814392026019142 0.030992093981735382 0.047393645867779916 -0.0016937185136284784 0.21512189255613415 0.097197258744533291 -0.050461724924006704 0.23143580592283852 0.293348069753472 0.29042010852594741 0.047215931683866758
leaf_count=973 1154 3524 25 1252 871 5153 4686 453 7163 3173 544 581 70 55 170 42 136 20 18 230
internal_value=0 -0.436174 0.734581 1.18256 0.430799 -0.1796 -0.237209 0.941969 -0.740514 0.519853 0.738284 0.929285 1.35418 0.62147 1.59931 2.0825 1.78224 0.598486 0.430241 1.07929
internal_count=30293 21680 8613 2926 5687 10993 9839 1953 10687 4816 1643 1099 463 636 393 223 198 62 471 1482
shrinkage=0.1


Tree=4
num_leaves=21
num_cat=0
split_feature=29 29 29 4 29 4 0 25 29 36 29 32 13 5 2 20 13 6 36 0
split_gain=683.194 108.375 107.033 26.0417 24.0905 23.0365 19.0776 14.8415 13.7324 11.5075 17.8717 14.1532 17.9733 15.0162 15.0951 13.6269 17.9649 19.693 13.716 14.564
threshold=7.2500000000000009 17.384934797642181 3.9499999999999997 -0.19960159362549748 2.6500000000000008 -0.026671408250355497 86.600000000000009 3.5000000000000004 13.500000000000002 0.34057971014492711 4.9000000000000004 0.097619047619047522 53.750000000000007 -0.104714912280701 4.5000000000000009 0.084954702601760523 55.250000000000007 55.500000000000007 0.23669467787114803 4.1500000000000004
decision_type=2 2 2 2 2 2 2 2 2 2 2 2 2 2 2 2 2 2 2 2
left_child=2 3 4 6 -1 9 -2 -6 -5 11 -11 12 -4 -13 -15 16 17 -14 -17 -20
right_child=1 -3 5 8 7 -7 -8 -9 -10 10 -12 13 15 14 -16 18 -18 -19 19 -21
leaf_value=0.1305473209582266 0.0034058789567099515 -0.074783749855387202 0.33221344221709487 -0.023088502405208294 0.090564601431756681 0.01559200821245646 0.30154929374794393 0.025473390377219764 -0.055292022688792332 0.076699753871525 0.0097580669184284749 -0.008009201370866045 0.42316223027341104 0.14217682528140677 0.024681908544334899 -8.4096809626553872e-05 0.090143440356848126 0.13431679116540726 0.0093059243053374326 0.137837116982753
leaf_count=854 2890 9448 27 6033 1741 3402 21 331 2402 520 1039 331 36 186 221 209 183 49 119 251
internal_value=0 -0.433811 0.59153 -0.214721 0.984221 0.345134 0.0596759 0.80839 -0.317005 0.524253 0.340524 0.703632 0.962588 0.394279 0.78749 0.883382 1.44237 2.56081 0.621387 0.969328
internal_count=30293 20794 9499 11346 2926 6573 2911 2072 8435 3171 1559 1612 874 738 407 847 268 85 579 370
shrinkage=0.1


Tree=5
num_leaves=21
num_cat=0
split_feature=29 29 29 4 29 4 4 29 34 42 42 33 13 12 38 1 47 0 15 34
split_gain=549.591 100.997 77.6174 24.5196 18.3657 17.03 15.5688 15.5395 13.0986 12.3431 13.695 12.1025 11.7843 21.7661 19.9333 29.6113 19.6581 11.531 11.2894 15.4424
threshold=7.2500000000000009 19.500000000000004 3.9499999999999997 -0.19960159362549748 2.0500000000000003 0.038711288711288011 -1.0000000180025095e-35 13.500000000000002 32.250000000000007 2.3117408906882591 3.0940170940170946 8.5000000000000018 59.750000000000007 0.12034482758620603 0.11603553062178552 4.5000000000000009 19.219942679722955 86.600000000000009 59.500000000000007 26.250000000000004
decision_type=2 2 2 2 2 2 2 2 2 2 2 2 2 2 2 2 2 2 2 2
left_child=2 3 4 17 -1 12 8 -5 9 18 -11 -12 -4 -14 15 16 -15 -2 -6 -20
right_child=1 -3 5 7 6 -7 -8 -9 -10 10 11 -13 13 14 -16 -17 -18 -19 19 -21
leaf_value=0.13387000373823119 0.0021647051067718547 -0.075172308122643014 0.036921968677716639 -0.021199576503617746 0.064203313303409268 0.0072840157129222642 0.051799384618791681 -0.053248536598627161 0.22986477366803656 0.25928325262334445 0.21351199137578478 -0.066930844468301887 0.34829675130025267 0.19801826096520539 -0.017515244004529196 0.045019493930167825 0.63435331311567578 0.20777701369491811 0.13404725560198974 0.012000412119542798
leaf_count=307 3138 8494 4029 6033 852 2301 1169 3107 42 51 16 20 28 23 108 69 15 22 386 83
internal_value=0 -0.406219 0.510319 -0.213745 0.833216 0.30118 0.752799 -0.311793 0.922902 0.880781 1.76716 0.63576 0.408098 1.04609 0.718778 1.64566 3.74281 0.0426466 0.81729 1.13203
internal_count=30293 20794 9499 12300 2926 6573 2619 9140 1450 1408 87 36 4272 243 215 107 38 3160 1321 469
shrinkage=0.1


Tree=6
num_leaves=21
num_cat=0
split_feature=29 29 29 4 29 4 12 15 4 19 26 22 30 15 9 42 30 46 37 4
split_gain=444.323 92.8303 59.2354 22.0892 20.5748 13.6148 13.5091 13.9411 18.8728 16.0958 13.0765 15.2262 22.1438 12.9781 14.1122 12.7405 16.713 14.1525 13.7924 12.5021
threshold=7.2500000000000009 19.500000000000004 4.4500000000000011 -0.048809523809523497 2.75 0.053342816500710509 0.18090909090909005 29.500000000000004 -0.17573529411764699 0.15268065268065203 40.500000000000007 0.47140522875816959 3551.5000000000005 77.500000000000014 0.14087301587301504 0.88975694444444409 30760.500000000004 1.5000000000000002 0.12249999999999951 -0.47871376811594146
decision_type=2 2 2 2 2 2 2 2 2 2 2 2 2 2 2 2 2 2 2 2
left_child=2 3 4 19 -1 -4 7 8 -6 -10 11 12 -8 -13 -15 16 17 -14 -18 -2
right_child=1 -3 5 -5 6 -7 10 -9 9 -11 -12 13 15 14 -16 -17 18 -19 -20 -21
leaf_value=0.09350640961506719 0.045716298599015014 -0.07246829620485444 0.031085019338372551 -0.034732482289265558 0.36188074717867652 -0.0029519058615071979 0.29950848542421549 0.019765935473647155 -0.010105615516444852 0.23532956124357285 0.039386612099410925 0.052434773896565381 0.040883329737055926 0.38041806561996716 0.056276920786457477 0.041382768973984463 0.1831318780107746 0.1898027582577958 0.46387871933719949 -0.0096017435415431812
leaf_count=973 495 8494 3719 6469 18 1725 46 1030 65 30 758 692 116 18 20 149 47 76 17 5336
internal_value=0 -0.3796 0.44344 -0.196248 0.661266 0.214204 0.537727 0.298346 1.216 0.689506 0.672364 0.847388 1.23448 0.608619 2.12008 1.03436 1.39818 1.00121 2.58164 -0.0436422
internal_count=30293 20794 9499 12300 4055 5444 3082 1143 113 95 1939 1181 451 730 38 405 256 192 64 5831
shrinkage=0.1


Tree=7
num_leaves=21
num_cat=0
split_feature=29 29 29 4 29 4 27 40 30 36 18 40 38 36 15 0 39 0 28 0
split_gain=373.365 74.3723 52.9488 18.1677 15.7844 13.3283 12.4431 16.3529 12.437 11.7502 17.0686 22.0232 14.4041 11.5445 11.0888 22.5152 10.8707 10.3623 10.9087 18.5546
threshold=9.7500000000000018 4.4500000000000011 22.000000000000004 -0.048809523809523497 2.75 -0.15707236842105246 31670.000000000004 0.098422752111276032 68670.500000000015 0.35504201680672259 0.12095088819226703 0.11753565062388553 0.16602564102564055 0.18898809523809504 71.500000000000014 2.6500000000000008 0.17316341829085405 98.350000000000009 2.5000000000000004 2.1500000000000008
decision_type=2 2 2 2 2 2 2 2 2 2 2 2 2 2 2 2 2 2 2 2
left_child=1 4 3 6 -1 13 7 -2 -6 10 12 -12 -9 -3 -11 -16 -7 18 19 -8
right_child=2 5 -4 -5 8 16 17 9 -10 14 11 -13 -14 -15 15 -17 -18 -19 -20 -21
leaf_value=0.080639479022111785 -0.020317514185333244 -0.023424151172353289 -0.07450384018073497 -0.04473495157349143 0.0482304113108184 0.011227228591500549 0.38313553887933682 0.012006392471534635 -0.11940401607238815 -0.0185497858832426 0.57627038543838249 0.13627513379623868 0.29628433421317502 0.037775637875803833 0.44445316498433513 -0.10965132578924507 -0.020679135060996588 0.19055607298690719 -0.031448598917955914 0.013914123040931689
leaf_count=973 502 335 7163 5236 3048 5147 19 115 34 186 22 42 30 2322 20 17 1462 20 3184 416
internal_value=0 0.308335 -0.453892 -0.289708 0.571578 0.123763 -0.126991 0.244308 0.46503 0.754051 1.36408 2.90085 0.680918 0.302359 0.179315 1.94077 0.0408247 -0.223147 -0.240731 0.297955
internal_count=30293 13321 16972 9809 4055 9266 4573 934 3082 432 209 64 145 2657 223 37 6609 3639 3619 435
shrinkage=0.1


Tree=8
num_leaves=21
num_cat=0
split_feature=29 29 29 4 29 20 4 40 38 5 32 18 47 4 35 20 20 3 30 31
split_gain=308.882 58.0016 49.1923 15.9304 15.2954 12.1392 11.9622 11.4555 11.8365 11.7856 11.6301 12.6848 11.0496 10.4852 10.3065 13.6228 11.45 15.7667 21.6224 16.7408
threshold=9.7500000000000018 4.9000000000000004 22.000000000000004 -0.25782013685239447 1.6749999999999992 0.12441127694859003 -0.0132456140350875 0.12234510898743652 0.048980407836865011 0.097167584579071528 0.32575757575757558 0.11922530206112252 8.2000000000000011 0.036375661375660513 9.5000000000000018 0.078999375910130523 0.14405035921043405 0.30068493150684855 51951.500000000007 1.5000000000000002
decision_type=2 2 2 2 2 2 2 2 2 2 2 2 2 2 2 2 2 2 2 2
left_child=1 4 3 14 5 -1 12 -8 10 -10 11 -9 -6 -3 16 -16 -2 18 19 -18
right_child=2 13 -4 -5 6 -7 7 8 9 -11 -12 -13 -14 -15 15 -17 17 -19 -20 -21
leaf_value=0.032766049583189891 -0.014428302882705328 0.016259061082734529 -0.071882936114138582 -0.035063755720694305 0.11171091951912548 0.1888185471949741 0.0073688230247901309 0.12605514162710538 0.02729294968489461 0.09074482956690462 -0.031752105093771243 0.42503312232491547 0.0509071273208078 -0.0082740042024346382 0.42779784535926785 -0.031872766950615208 0.30827298457442337 -0.040359954831866149 0.38137711794752915 0.016283669584027567
leaf_count=35 1612 5312 7163 7848 200 57 997 28 986 288 18 17 2399 2984 15 16 29 122 32 135
internal_value=0 0.272033 -0.426615 -0.268605 0.46914 1.30474 0.445134 0.299265 0.458109 0.403482 1.61311 2.32415 0.55577 0.0832267 0.0122339 1.99475 -0.0210225 0.58319 1.19655 0.68227
internal_count=30293 13321 16972 9809 5025 92 4933 2334 1337 1274 63 45 2599 8296 1961 31 1930 318 196 164
shrinkage=0.1


Tree=9
num_leaves=21
num_cat=0
split_feature=29 29 29 29 4 16 4 4 36 34 29 32 5 37 36 5 3 39 18 5
split_gain=258.057 51.5404 39.0951 16.8803 14.9798 15.0252 11.6243 10.9858 14.5208 10.4702 9.72336 12.0385 10.0822 10.1969 9.66212 13.76 11.5667 11.2505 9.21738 20.3141
threshold=10.500000000000002 5.2500000000000009 22.000000000000004 3.0500000000000003 -0.048809523809523497 0.67333333333333323 0.046536796536796009 -0.19586530264279547 0.13961038961038905 23.950000000000003 5.6250000000000009 0.77500000000000013 0.15470085470085404 0.3585714285714281 0.31909090909090904 -0.26520146520146443 0.31209415584415556 0.24722222222222204 0.14909495077802404 -0.51109756097560943
decision_type=2 2 2 2 2 2 2 2 2 2 2 2 2 2 2 2 2 2 2 2
left_child=1 3 4 6 5 -2 -1 8 -3 -7 11 14 13 -12 15 -10 -16 -18 -4 -20
right_child=2 7 18 -5 -6 9 -8 -9 10 -11 12 -13 -14 -15 16 -17 17 -19 19 -21
leaf_value=0.070674969794613698 -0.013440754836013501 -0.063183670497388544 -0.076130874176500163 0.02975061252229896 -0.043123901187193732 0.05115103253093211 0.022271059118171867 -0.0037367753976574065 0.3153631813361808 0.48421785755039215 0.015946240395686411 0.29900728389386128 0.2105875095115306 0.27315743144274207 -0.076629497748594066 0.061876324693517205 0.031508781469870593 0.28959287688303903 0.43211961325723114 -0.039304212632872308
leaf_count=1041 4086 182 6063 4559 4697 16 344 6292 20 15 1640 18 27 16 56 50 55 16 19 1081
internal_value=0 0.226491 -0.42703 0.390711 -0.271879 -0.115062 0.59459 0.0374022 0.227851 2.45563 0.305512 0.841523 0.214572 0.183314 0.647873 1.43652 0.186282 0.911535 -0.692251 -0.311614
internal_count=30293 14316 15977 5944 8814 4117 1385 8372 2080 31 1898 215 1683 1656 197 70 127 71 7163 1100
shrinkage=0.1


Tree=10
num_leaves=21
num_cat=0
split_feature=29 29 29 29 4 16 4 40 47 0 0 7 39 4 29 15 47 27 15 38
split_gain=214.163 40.3703 36.2333 13.6309 13.0603 9.63004 9.35079 11.7531 10.5958 10.2152 15.3402 14.8941 12.5008 9.18753 9.20269 9.48099 19.6966 9.00597 11.8534 11.5932
threshold=10.500000000000002 5.2500000000000009 22.000000000000004 2.75 -0.048809523809523497 0.67333333333333323 -0.028991596638654998 0.20527728085867605 8.2000000000000011 3.5500000000000003 2.3499999999999992 1375.0000000000002 0.22086720867208656 -0.1148351648351645 34.500000000000007 15.500000000000002 21.200000000000003 31670.000000000004 48.500000000000007 0.25677655677655659
decision_type=2 2 2 2 2 2 2 2 2 2 2 2 2 2 2 2 2 2 2 2
left_child=1 3 4 -1 5 17 8 -8 -5 10 -9 12 -11 14 15 16 -4 18 -2 -20
right_child=2 -3 13 6 -6 -7 7 9 -10 11 -12 -13 -14 -15 -16 -17 -18 -19 19 -21
leaf_value=0.056671480556059223 -0.04338123882606152 0.0033068049192592633 0.61761824591582437 0.094251263726907897 -0.040370000015931606 0.174126954653189 0.010252007977086613 0.026335895155910938 0.033296311447388795 0.26906862242620971 0.40456965780714449 -0.049510717365078082 0.0050930123271942587 -0.080439248983559974 -0.076183979235322941 -0.028538637660196528 -0.10508694324211283 -0.021331660372742031 0.03879337384222209 0.28386989544154995
leaf_count=973 259 8372 15 193 4697 31 2397 15 2237 29 17 58 25 4239 1276 1615 18 3249 554 24
internal_value=0 0.20091 -0.400294 0.34407 -0.251048 -0.104981 0.27655 0.150619 0.383276 0.916246 2.26952 0.516114 1.52771 -0.665533 -0.464781 -0.234895 2.23682 -0.122407 0.211683 0.5012
internal_count=30293 14316 15977 5944 8814 4117 4971 2541 2430 144 32 112 54 7163 2924 1648 33 4086 837 578
shrinkage=0.1


Tree=11
num_leaves=21
num_cat=0
split_feature=29 29 29 4 29 35 25 17 25 40 4 4 5 30 0 18 0 34 4 30
split_gain=181.364 48.2893 19.8284 15.1427 14.3502 12.8218 12.8923 12.07 12.604 19.677 11.6236 9.26163 9.65533 12.6578 13.3451 9.2066 15.6745 17.5318 14.0317 17.642
threshold=13.500000000000002 6.2500000000000009 28.500000000000004 -0.039736842105262994 3.25 6.5000000000000009 5.5000000000000009 0.12249999999999951 7.5000000000000009 0.088294353886132521 0.50373134328358216 -0.149074074074074 -0.15331196581196499 14024.500000000002 1.1499999999999997 0.21244358478401004 12.750000000000002 21.350000000000005 -0.097406704617330489 21899.500000000004
decision_type=2 2 2 2 2 2 2 2 2 2 2 2 2 2 2 2 2 2 2 2
left_child=1 4 3 5 -1 -2 -7 8 9 -8 15 12 -6 14 -14 -3 17 -17 -19 -20
right_child=2 10 -4 -5 11 6 7 -9 -10 -11 -12 -13 13 -15 -16 16 -18 18 19 -21
leaf_value=0.044698011069360784 -0.025246613523154687 -0.0053519163981375984 -0.072128288893484757 -0.053525885283585151 0.016623610214605119 0.0056683422467750403 0.10086259073199351 -0.10775607305446976 0.029046505307381849 0.5511576986930441 -0.076496558991162311 0.012689449685005358 0.23752950605389689 0.0796500396057266 0.00027472772751350164 -0.0040092240601079477 -0.057060807293692811 0.21993376123537856 -0.016987518589325314 0.25491381188846002
leaf_count=1700 3182 8921 4904 4180 868 311 30 22 34 29 302 4334 18 543 290 212 155 101 115 42
internal_value=0 0.142092 -0.470388 -0.347716 0.275633 -0.161108 0.486001 1.60521 2.21002 3.2917 -0.0445636 0.201474 0.359029 0.5568 0.134349 -0.0245939 0.380265 0.694714 1.30035 0.577601
internal_count=30293 17601 12692 7788 7753 3608 426 115 93 59 9848 6053 1719 851 308 9546 625 470 258 157
shrinkage=0.1


Tree=12
num_leaves=21
num_cat=0
split_feature=29 29 29 4 29 1 18 31 15 4 34 42 9 32 4 26 7 3 15 30
split_gain=152.371 38.3801 19.0829 17.8236 12.2132 11.3531 10.8203 23.0826 21.649 10.6948 12.2559 11.1456 18.7773 10.6627 10.5807 10.24 14.7372 12.2231 10.6127 8.8583
threshold=13.500000000000002 6.2500000000000009 34.500000000000007 -0.039736842105262994 2.125 6.5000000000000009 0.19462481962481903 2.5000000000000004 58.500000000000007 0.11050061050060953 29.050000000000004 1.8708333333333333 0.3867521367521361 0.40833333333333305 0.62202380952380965 147.50000000000003 2037.5000000000002 0.20710681244743404 73.500000000000014 11013.000000000002
decision_type=2 2 2 2 2 2 2 2 2 2 2 2 2 2 2 2 2 2 2 2
left_child=1 4 3 -2 -1 9 -4 -8 -9 13 11 -11 -13 -6 -3 16 19 -18 -17 -15
right_child=2 14 6 -5 5 -7 7 8 -10 10 -12 12 -14 15 -16 18 17 -19 -20 -21
leaf_value=0.061738170289844602 -0.016558076548147432 -0.0025893735844795861 -0.086087948254545466 -0.054724494124248561 0.034599130959394743 -0.019407845946614183 -0.043305196323652116 0.033815636890405773 0.83268635445635697 -0.001444108978915544 -0.096628933575879081 0.023863297652427718 0.30375794076002915 0.052772991243461631 -0.092851841754369932 -0.049501463859713893 0.023067863900404821 0.32217680890539829 0.10240636984460481 -0.00082637815401996801
leaf_count=343 4437 9653 3010 5055 4381 478 158 17 15 1025 98 74 24 282 195 283 17 20 34 694
internal_value=0 0.126621 -0.443218 -0.353251 0.244209 0.215641 -0.786514 0.347559 4.09276 0.24168 -0.0104491 0.0785793 0.988014 0.284074 -0.0406957 0.083027 0.206833 1.81671 -0.327067 0.147741
internal_count=30293 17601 12692 9492 7753 7410 3200 190 32 6932 1221 1123 98 5711 9848 1330 1013 37 317 976
shrinkage=0.1


Tree=13
num_leaves=21
num_cat=0
split_feature=29 29 29 4 29 20 18 31 22 12 2 0 29 26 11 0 4 18 12 22
split_gain=127.882 30.5069 18.1725 15.9978 9.65625 12.6594 9.51211 11.4826 11.7938 8.66776 8.6606 9.74606 14.4147 10.7937 9.50652 12.72 11.437 15.6603 15.0379 11.0074
threshold=13.500000000000002 5.2500000000000009 34.500000000000007 -0.039736842105262994 1.6249999999999998 0.12441127694859003 0.19462481962481903 2.5000000000000004 0.18350168350168303 0.49074074074074053 7.5000000000000009 64.450000000000017 8.7500000000000018 97.500000000000014 0.082482993197278517 11.15 -0.29051012753188249 0.18441295546558653 0.18090909090909005 1.2366946778711478
decision_type=2 2 2 2 2 2 2 2 2 2 2 2 2 2 2 2 2 2 2 2
left_child=1 4 3 -2 5 9 -4 -8 -9 -1 14 -12 -13 -14 -3 16 17 -16 -19 -17
right_child=2 10 6 -5 -6 -7 7 8 -10 -11 11 12 13 -15 15 19 -18 18 -20 -21
leaf_value=-0.11572538250274716 -0.015130950385710957 -0.018478958446554308 -0.084222693161484286 -0.05187820578254209 0.022697540665436357 0.15294984541639275 -0.040638366168449243 0.46904962904376302 -0.0099003600947756357 0.093216186727681061 -0.017667561942629695 -0.021396716873597395 0.072603866944652942 0.4376399862376148 0.038418190479741203 -8.9866157038337625e-05 0.012247121343789334 0.05300284683103082 0.30861396626799242 -0.066276559400110818
leaf_count=16 4437 1537 3010 5055 5859 52 158 15 17 17 3512 46 18 19 670 1510 3906 43 40 356
internal_value=0 0.112965 -0.416614 -0.328804 0.242114 0.915889 -0.765015 0.265267 2.31605 -0.0758404 -0.00740666 -0.148124 0.968376 2.56763 0.0531884 0.109454 0.203935 0.546958 1.77182 -0.125008
internal_count=30293 17601 12692 9492 5944 85 3200 190 32 33 11657 3595 83 37 8062 6525 4659 753 83 1866
shrinkage=0.1


Tree=14
num_leaves=21
num_cat=0
split_feature=29 29 29 4 7 1 29 4 13 12 40 2 27 12 40 40 27 42 46 10
split_gain=107.109 25.5681 17.2674 10.4137 11.0905 9.44084 9.34597 9.29426 8.97057 8.60454 14.3921 8.47235 9.6327 8.6051 12.1845 10.695 10.0153 13.8873 9.42125 11.8656
threshold=13.500000000000002 6.2500000000000009 28.500000000000004 -0.039736842105262994 1204.0000000000002 6.5000000000000009 3.1500000000000008 0.62202380952380965 58.750000000000007 0.73863636363636365 0.22711154094132804 7.5000000000000009 510.00000000000006 0.10380747126436703 0.13250437648027955 0.13045643512904853 109867.50000000001 0.62678571428571417 6.5000000000000009 1.0000000180025095e-35
decision_type=2 2 2 2 2 2 2 2 2 2 2 2 2 2 2 2 2 2 2 2
left_child=1 5 3 4 8 6 -1 -3 -2 11 -11 12 -8 14 16 -15 18 -18 19 -13
right_child=2 7 -4 -5 -6 -7 9 -9 -10 10 -12 13 -14 15 -16 -17 17 -19 -20 -21
leaf_value=0.036401950665690345 0.026267857234869813 -0.0023420779385553169 -0.065020690323539299 -0.044569024223650916 -0.031306409520018404 -0.016849401997825 -0.042936749310636207 -0.090683332036131312 -0.082879411938664216 0.044380326945387821 0.27448714165444238 -0.017162971027950693 0.022496162059092616 -0.041814975038752519 -0.034803948856633536 0.0122031775301283 0.39504515409891683 0.05708347119013836 0.24188770900265655 0.15933776963210175
leaf_count=1466 1318 9653 4904 4180 2144 494 180 195 146 241 17 125 3909 589 121 516 17 21 18 39
internal_value=0 0.100806 -0.390608 -0.274352 -0.120552 0.195016 0.217194 -0.0367382 0.156089 0.159522 0.616244 0.135747 0.197622 -0.0460379 0.340574 -0.162402 0.740426 2.03009 0.463033 0.253965
internal_count=30293 17601 12692 7788 3608 7753 7259 9848 1464 5793 258 5535 4089 1446 341 1105 220 38 182 164
shrinkage=0.1


Tree=15
num_leaves=21
num_cat=0
split_feature=29 29 29 4 18 15 1 4 29 20 4 35 25 30 4 31 40 33 36 0
split_gain=89.5483 20.3721 16.4852 13.0571 9.14203 10.1477 8.41279 8.31822 9.04784 8.41021 8.25995 7.83893 11.9069 12.1257 13.4952 7.89307 13.83 17.3281 7.79117 11.2943
threshold=13.500000000000002 6.2500000000000009 34.500000000000007 -0.039736842105262994 0.19462481962481903 56.500000000000007 4.5000000000000009 0.24417344173441705 1.6249999999999998 0.12441127694859003 0.62202380952380965 6.5000000000000009 5.5000000000000009 9166.5000000000018 -0.5985074626865664 1.5000000000000002 0.071259309410967517 9.5000000000000018 1.0000000180025095e-35 12.550000000000002
decision_type=2 2 2 2 2 2 2 2 2 2 2 2 2 2 2 2 2 2 2 2
left_child=1 7 3 11 -4 -6 -7 8 9 -1 18 -2 15 -14 -15 16 -13 -18 19 -3
right_child=2 10 4 -5 5 6 -8 -9 -10 -11 -12 12 13 14 -16 -17 17 -19 -20 -21
leaf_value=0.0011988854062747632 -0.019250258310586552 -0.068023793821582565 -0.080729075293651129 -0.046374088628681198 -0.080047007136871906 0.31739126941605089 0.021735917570714441 -0.016559822319701444 0.018193281307638285 0.13478534912839155 -0.088698929511304675 -0.1076820780334376 0.3734788022549127 0.34250987240056785 0.013519960155702984 -0.031863135691555383 0.60179599065921385 -0.0001111193943978576 -0.00010852363969989672 0.16964799021343169
leaf_count=31 3891 362 3010 5055 108 33 49 590 7080 52 195 24 24 19 111 337 15 16 9263 28
internal_value=0 0.0900496 -0.365282 -0.28161 -0.722016 0.2997 1.44084 0.173445 0.194202 0.856296 -0.0332193 -0.121359 0.341648 1.26004 0.75837 -0.0673899 1.36524 3.0961 -0.0211211 -0.514283
internal_count=30293 17601 12692 9492 3200 190 82 7753 7163 83 9848 4437 546 154 130 392 55 31 9653 390
shrinkage=0.1


Tree=16
num_leaves=21
num_cat=0
split_feature=29 29 29 4 19 36 4 3 0 5 42 30 4 47 27 44 40 16 0 17
split_gain=76.1297 20.6914 11.6957 11.9683 12.159 15.8218 10.8569 11.4484 11.0157 11.6392 9.74364 12.5526 9.50707 9.28574 9.26159 9.05365 8.68911 9.5766 25.737 20.3615
threshold=16.500000000000004 6.5499999999999998 46.000000000000007 -0.039736842105262994 0.3717105263157891 0.16333333333333303 -0.47871376811594146 0.28501400560224061 77.15000000000002 0.063508064516129017 1.0118679775280892 23718.500000000004 -0.58633540372670745 23.100000000000005 130087.50000000001 0.11651583710407203 0.035929432013769011 0.4899999999999996 3.1500000000000008 0.23904761904761854
decision_type=2 2 2 2 2 2 2 2 2 2 2 2 2 2 2 2 2 2 2 2
left_child=1 -1 3 16 -5 -6 7 12 -8 10 11 -10 14 -14 -3 -15 -2 -18 19 -19
right_child=2 6 -4 4 5 -7 8 -9 9 -11 -12 -13 13 15 -16 -17 17 18 -20 -21
leaf_value=0.014809825293691813 -0.053364100974694663 -0.052162610747279986 -0.076744806135808932 -0.055486218492762134 0.54032991849327006 0.0029419204065684237 -0.0096190371721999041 -0.015097913024384985 0.12890610192995766 -0.041911497176725876 0.0018253610792065191 0.46296673429333074 0.083256281780448804 0.1214276650049768 0.17738119762025439 0.39334995495804576 -0.0087124068804104761 0.54085319343063376 -0.040442451806518002 -0.012100748061163484
leaf_count=8613 983 65 2338 4350 21 49 10456 181 33 57 23 16 93 24 23 22 2805 34 90 17
internal_value=0 0.0685848 -0.398673 -0.322777 -0.519844 1.60877 -0.0549703 0.441346 -0.0814957 0.876091 1.63562 2.44338 0.90331 1.40258 0.0932219 2.52273 -0.147529 -0.0248445 1.07981 3.4139
internal_count=30293 19606 10687 8349 4420 70 10993 408 10585 129 72 49 227 139 88 46 3929 2946 141 51
shrinkage=0.1


Tree=17
num_leaves=21
num_cat=0
split_feature=29 29 29 4 2 7 13 0 30 4 36 18 38 30 4 0 7 36 40 4
split_gain=64.1639 17.9068 10.9919 10.715 9.86316 14.8285 12.4635 9.82554 9.11224 9.00472 9.30027 8.49672 11.3116 8.42107 8.16403 8.26036 8.72502 9.9099 8.86725 12.932
threshold=16.500000000000004 4.4500000000000011 34.500000000000007 -0.039736842105262994 6.5000000000000009 2505.0000000000005 56.250000000000007 98.350000000000009 68670.500000000015 -0.35198226395409443 0.58578431372549022 0.25425685425685357 0.066391184573002013 68816.500000000015 -0.65281962978906549 12.65 1645.0000000000002 0.31909090909090904 0.085396494668463524 -0.36285266457680199
decision_type=2 2 2 2 2 2 2 2 2 2 2 2 2 2 2 2 2 2 2 2
left_child=1 8 3 -2 9 7 -7 13 -1 10 14 -4 -13 -6 -3 16 18 -18 -16 -20
right_child=2 4 11 -5 5 6 -8 -9 -10 -11 -12 12 -14 -15 15 -17 17 -19 19 -21
leaf_value=0.019900096467888845 -0.011291473578479871 -0.082635352304734871 -0.072308273712307261 -0.048557682801208354 -0.015123730202525035 0.31100565900003602 -0.047113067230945931 0.10312592457757018 -0.088875018321899368 0.0021304839260332387 0.23368205167880252 0.35853037117749897 -0.10504609712922375 0.19365315577723707 0.016204870932050548 -0.026713059425066757 0.062242943739498638 -0.11595820257740735 0.074918211809319693 0.29243433920751649
leaf_count=4008 3508 58 3151 3979 6109 29 18 66 47 8322 18 23 26 19 253 161 56 59 357 26
internal_value=0 0.0612989 -0.37405 -0.283986 -0.00587319 -0.112588 1.77023 -0.127393 0.187467 0.0611591 0.327957 -0.676788 1.30877 -0.14346 0.285893 0.35398 0.484895 -0.286276 0.619742 0.891026
internal_count=30293 19606 10687 7487 15551 6241 47 6194 4055 9310 988 3200 49 6128 970 912 751 115 636 383
shrinkage=0.1


Tree=18
num_leaves=21
num_cat=0
split_feature=29 29 29 4 18 20 30 5 4 11 9 16 17 5 28 19 47 11 3 36
split_gain=54.2893 17.9571 10.0099 8.74019 8.73651 12.316 23.6009 8.43776 10.9656 9.39632 9.16982 8.43118 10.1095 17.6078 10.4867 9.58686 26.736 10.6209 14.9132 8.20393
threshold=10.500000000000002 28.500000000000004 3.25 0.68585526315789458 0.15122927387078303 0.072787477423238517 20203.500000000004 0.17165178571428555 0.046536796536796009 0.29912280701754307 0.43303571428571408 0.4899999999999996 0.21240601503759354 -0.30662393162393098 5.5000000000000009 0.20638945233265654 19.719942679722955 0.27622890682318407 0.28501400560224061 0.39565217391304308
decision_type=2 2 2 2 2 2 2 2 2 2 2 2 2 2 2 2 2 2 2 2
left_child=2 11 7 -4 -3 6 -6 8 10 -9 -1 -2 13 14 -13 17 -17 -15 -19 -12
right_child=1 4 3 -5 5 -7 -8 9 -10 -11 19 12 -14 15 -16 16 -18 18 -20 -21
leaf_value=0.042808164713037514 -0.018948092161228797 -0.066321451842243903 0.0055006143943308935 -0.097497037604172554 -0.10492269905304825 -0.022123091623104704 0.57224986317117876 0.029012027906234406 -0.012372466533436774 0.25617991378160132 -0.028010532718020328 0.52300397590672953 -0.039652275836415035 -0.058518869943655627 0.11774954508293761 0.52821169475006247 -0.023406635667380372 0.39500659348223027 0.030279138665780039 0.033046463527136589
leaf_count=874 10474 4206 12500 116 29 645 24 22 387 17 195 16 216 171 16 21 35 23 101 205
internal_value=0 -0.235476 0.087148 0.0489321 -0.553096 -0.000148666 2.33772 0.235314 0.213313 1.29336 0.304938 -0.159062 0.305686 0.698642 3.17717 0.396227 1.84729 0.0806662 1.0082 0.0382227
internal_count=30293 15977 14316 12616 4904 698 53 1700 1661 39 1274 11073 599 383 32 351 56 295 124 400
shrinkage=0.1


Tree=19
num_leaves=21
num_cat=0
split_feature=29 29 18 20 34 8 25 44 40 37 5 4 4 12 18 13 3 29 5 4
split_gain=46.8257 15.3217 10.2319 12.3921 14.844 11.2788 10.7323 18.8573 9.66715 9.53094 9.18592 7.9619 7.67574 10.4331 9.12619 8.48967 13.1845 9.1942 8.40471 10.1098
threshold=19.500000000000004 8.7500000000000018 0.14909495077802404 0.066852886405958517 25.550000000000004 0.58578431372549022 3.5000000000000004 0.24695121951219504 0.14267857142857054 0.078461538461538013 -0.51109756097560943 -0.094494047619047492 -0.025320512820512498 0.73863636363636365 0.31553121888778207 55.250000000000007 0.089898989898989021 1.9249999999999992 -0.116515837104072 -0.40138888888888846
decision_type=2 2 2 2 2 2 2 2 2 2 2 2 2 2 2 2 2 2 2 2
left_child=1 12 11 4 9 10 8 -8 -7 -4 -5 -2 14 15 18 -14 -17 -18 19 -1
right_child=2 -3 3 5 -6 6 7 -9 -10 -11 -12 -13 13 -15 -16 16 17 -19 -20 -21
leaf_value=0.040512338593550079 -0.029287242406812387 -0.0089784315552890719 0.57137667351472909 0.2175012480239206 -0.10792480167790708 -0.10396952965529305 0.63073143680926913 -0.10385647787477514 0.34355633901889826 0.12075043577373386 -0.034806684048796693 -0.067085679390209638 0.017834880767894131 0.051437829268738328 -0.080033014784873527 -0.056050623618587508 0.069343589250880938 -0.0051443885224993673 0.025068742932452117 -0.0033768058693178851
leaf_count=440 3113 9905 22 21 25 50 23 16 15 16 1156 4037 1529 251 59 454 71 3729 3430 1931
internal_value=0 0.0402351 -0.398433 0.0110266 2.01581 -0.112883 1.51341 3.60912 0.203539 3.66747 -0.2605 -0.489901 0.0931637 0.017295 0.157103 -0.0117091 -0.0770386 -0.023445 0.168204 0.0481587
internal_count=30293 21799 8494 1344 63 1281 104 39 65 38 1177 7150 11894 6034 5860 5783 4254 3800 5801 2371
shrinkage=0.1


Tree=20
num_leaves=21
num_cat=0
split_feature=29 29 4 18 3 29 20 18 26 34 9 9 34 4 18 45 2 12 11 33
split_gain=39.7523 12.9175 8.9808 8.71262 8.20723 8.03707 7.83036 8.77638 22.398 7.78308 7.67996 12.2603 8.15761 8.59587 12.6386 9.94252 9.3842 21.823 8.37472 12.276
threshold=19.500000000000004 6.5499999999999998 -0.47871376811594146 0.14909495077802404 0.28966437833714709 34.500000000000007 0.066852886405958517 0.15266007532956602 -50.499999999999993 25.550000000000004 0.063508064516129017 0.072751322751322525 33.400000000000006 -0.18138528138528048 0.10072463768115902 0.57738095238095222 1.5000000000000002 0.17274535809018554 0.45889639639639607 12.500000000000002
decision_type=2 2 2 2 2 2 2 2 2 2 2 2 2 2 2 2 2 2 2 2
left_child=1 -1 4 5 -3 10 9 8 -8 -5 -2 -12 13 14 15 16 17 -13 -15 -20
right_child=3 2 -4 6 -6 -7 7 -9 -10 -11 11 12 -14 18 -16 -17 -18 -19 19 -21
leaf_value=0.0099874613797723104 -0.053304854376899129 0.067278159238617782 -0.0078839728393756848 0.23068203869654585 -0.014339815507324747 -0.075916995557676684 0.6859218220719413 -0.021278713412014691 -0.0011650477824719245 -0.10719917047063909 0.4783256595400901 0.0028191254725980796 0.33148332585027512 -0.056640993533453046 -0.089078925079558988 0.43236651161558975 0.036355883380571184 0.79472836637481137 -0.040830804637474183 0.4101012874407241
leaf_count=8613 2522 305 12663 38 218 2740 16 1212 53 25 15 22 17 1161 159 19 401 15 48 31
internal_value=0 0.0360566 -0.0547588 -0.374637 0.35068 -0.462838 0.000169925 -0.108796 1.70016 1.4315 -0.335712 -0.0750362 -0.114268 -0.151549 0.315573 0.747487 0.591832 2.9936 -0.443068 1.30385
internal_count=30293 21799 13186 8494 523 7150 1344 1281 69 63 4410 1888 1873 1856 616 457 438 37 1240 79
shrinkage=0.1


Tree=21
num_leaves=21
num_cat=0
split_feature=29 29 4 37 15 42 16 4 36 2 11 13 38 29 33 34 36 15 29 11
split_gain=34.2144 12.2837 8.08952 11.1317 17.3263 7.52727 23.4155 6.97766 7.18483 7.06666 8.94414 7.67218 11.6998 8.0697 9.25395 9.23958 9.31639 8.31145 15.135 20.4958
threshold=22.000000000000004 8.7500000000000018 -0.1148351648351645 0.27888888888888858 53.500000000000007 2.0792778649921511 0.39565217391304308 0.68585526315789458 0.14642857142857055 7.5000000000000009 0.60303030303030269 54.750000000000007 0.21834935897435856 2.8249999999999997 6.5000000000000009 29.550000000000004 0.39565217391304308 61.500000000000007 7.2500000000000009 0.22128060263653454
decision_type=2 2 2 2 2 2 2 2 2 2 2 2 2 2 2 2 2 2 2 2
left_child=1 7 3 5 -5 -2 -7 8 -1 11 -11 12 13 15 -15 16 -10 -16 -19 -20
right_child=2 -3 -4 4 -6 6 -8 -9 9 10 -12 -13 -14 14 17 -17 -18 18 19 -21
leaf_value=-0.020745490435349265 -0.028823369155078361 -0.0083773372411407691 -0.05882855944804484 0.52535469069632135 -0.03065410445833875 -0.04429819557871395 0.66273020559674489 -0.094846171648413469 -0.018197377146268675 0.001704417657469665 -0.061261976745847817 0.009513436613162795 -0.040079026218295601 -0.030809055995988405 0.024042905207711573 0.24251841691330298 0.12806459317959618 0.049538993860503637 0.43294175115673017 0.086590014890077116
leaf_count=703 2789 11236 4239 28 41 50 16 93 33 2744 180 6562 155 150 839 15 45 285 31 59
internal_value=0 0.02764 -0.402941 -0.185527 1.97972 -0.241177 1.53484 0.0758717 0.0801417 0.095867 -0.023852 0.135053 0.304409 0.38105 0.309618 0.959638 0.665812 0.395818 0.746529 2.03353
internal_count=30293 23130 7163 2924 69 2855 66 11894 11801 11098 2924 8174 1612 1457 1364 93 78 1214 375 90
shrinkage=0.1


Tree=22
num_leaves=21
num_cat=0
split_feature=29 29 2 34 4 7 12 3 39 16 32 4 26 38 4 2 5 12 15 5
split_gain=29.0367 10.7909 8.83781 11.0536 7.8159 7.78725 7.70541 11.591 16.8107 12.2856 7.55209 7.2698 7.56804 7.29378 12.2841 8.66695 13.8819 20.7786 8.09945 18.1115
threshold=22.000000000000004 3.9499999999999997 6.5000000000000009 32.250000000000007 0.21525096525096504 2505.0000000000005 0.73863636363636365 0.063164893617021017 0.24722222222222204 0.22902097902097854 0.36038961038961009 -0.1148351648351645 154.00000000000003 0.17555713608345155 -0.54132513661202097 12.500000000000002 -0.13003220611916197 0.14048793859649103 15.500000000000002 -1.0000000180025095e-35
decision_type=2 2 2 2 2 2 2 2 2 2 2 2 2 2 2 2 2 2 2 2
left_child=1 -1 3 4 -3 6 -4 8 9 -8 -6 12 13 15 -15 18 -17 -18 19 -2
right_child=11 2 5 -5 10 -7 7 -9 -10 -11 -12 -13 -14 14 -16 16 17 -19 -20 -21
leaf_value=0.014245494716345647 -0.10415350355899074 0.0088473098883896859 -0.013540416616380391 -0.053541608441543355 -0.0087172768062432193 0.10949070304473525 0.28528507085194604 -0.041133969970354768 0.40630170606918031 0.0046145017507770543 -0.084173616594133333 -0.056132716230207692 -0.07271519776165157 0.49831964606231943 0.04985288301684207 -0.045325689156123984 -0.1029944687469333 0.67114493886149029 -0.028671600775906955 0.55811666068379917
leaf_count=2926 29 10047 8030 346 1306 56 20 82 16 72 229 4239 637 18 221 62 21 25 1891 20
internal_value=0 0.0246706 -0.0153805 0.0413481 0.0595537 -0.106645 -0.11655 0.513184 1.17774 0.646912 -0.205288 -0.378716 -0.173024 -0.0229734 0.852754 -0.139258 1.46623 3.73147 -0.224635 1.94849
internal_count=30293 23130 20204 11928 11582 8276 8220 190 108 92 1535 7163 2924 2287 239 2048 108 46 1940 49
shrinkage=0.1


Tree=23
num_leaves=21
num_cat=0
split_feature=29 26 26 2 18 3 20 18 35 4 5 5 30 47 0 0 3 6 5 13
split_gain=25.0501 8.83974 9.86055 7.83738 8.71859 8.49248 10.8568 14.0859 8.63023 14.9427 10.5268 12.6315 16.1154 9.69335 9.99803 15.9853 10.4375 9.20178 11.9658 9.08614
threshold=16.500000000000004 104.00000000000001 47.500000000000007 1.5000000000000002 0.30901856763925656 0.16552511415525054 0.14590970165803455 0.12712842712842654 5.5000000000000009 -0.43449656750572047 -0.30662393162393098 -0.1866071428571425 9721.5000000000018 19.719942679722955 6.2500000000000009 4.6500000000000004 0.38315602836879409 39.500000000000007 -0.23582887700534699 54.250000000000007
decision_type=2 2 2 2 2 2 2 2 2 2 2 2 2 2 2 2 2 2 2 2
left_child=3 2 -2 5 -5 6 -1 -8 10 -10 -7 12 -12 14 15 16 -11 -14 -19 -15
right_child=1 -3 -4 4 -6 8 7 -9 9 13 11 -13 17 19 -16 -17 -18 18 -20 -21
leaf_value=-0.038489897479651335 -0.024158010153483896 -0.054000657895121013 0.033547057034353525 0.0020205707003713401 -0.055215180701886836 -0.07712735785697665 0.30239656973257989 0.018722447246803279 0.28250267349454367 -0.096901380019360495 0.34901951476974591 0.01831610691757506 -0.052499150400790701 0.31346224579618825 -0.051193973728903587 0.33092930100383766 0.19792088859006576 -0.00716071940476673 0.29166258363796266 0.084475325654045239
leaf_count=387 7005 2650 1032 17301 224 83 20 66 23 34 21 1154 29 16 88 16 15 19 20 90
internal_value=0 -0.256882 -0.166158 0.0338821 0.012011 0.202028 -0.147664 0.697864 0.301032 0.75285 0.201117 0.270267 1.26242 0.544557 0.0836463 0.985173 0.0566748 0.649197 1.4964 1.21309
internal_count=30293 10687 8037 19606 17525 2081 473 86 1608 282 1326 1243 89 259 153 65 49 68 39 106
shrinkage=0.1


Tree=24
num_leaves=21
num_cat=0
split_feature=29 2 12 0 47 29 9 27 37 11 27 20 39 36 18 28 30 18 9 13
split_gain=21.8305 8.5637 11.5747 9.04455 9.64561 8.16395 9.19439 10.2872 9.47078 8.70938 7.9174 7.80521 7.45282 9.69206 7.23028 7.91526 8.7293 7.0122 7.38009 11.979
threshold=22.000000000000004 7.5000000000000009 0.60555555555555518 70.350000000000009 16.850000000000005 2.6500000000000008 0.38278388278388209 980306.50000000012 0.23669467787114803 0.28669275929549859 91680.000000000015 0.090744400527008523 0.2838827838827836 0.42481203007518759 0.045804195804195515 2.5000000000000004 12509.500000000002 0.14909495077802404 0.19292803970223305 61.250000000000007
decision_type=2 2 2 2 2 2 2 2 2 2 2 2 2 2 2 2 2 2 2 2
left_child=1 5 3 -3 -5 6 9 8 -8 14 -11 -12 -4 -14 -1 -16 -17 18 -2 -20
right_child=17 2 12 4 -6 -7 7 -9 -10 10 11 -13 13 -15 15 16 -18 -19 19 -21
leaf_value=-0.077393417735697176 -0.058153191089167944 -0.013782643426256277 0.026080909928607988 0.16533840323054033 8.8553241957784186e-06 0.003441043365404307 -0.04562312056599617 0.10764927764779597 0.060253102567014827 0.031861236445267685 0.0017562969155784172 0.13596135761813888 0.015524214781760727 0.27971222047226435 0.074630641872485179 -0.10099774752600749 0.027785550452634353 0.005687392578888552 -0.014875605461247571 0.46397909392086967
leaf_count=31 4377 6611 290 45 77 15372 164 30 45 103 23 94 20 17 93 30 85 1100 1666 20
internal_value=0 0.0203394 -0.0802606 -0.117487 0.655531 0.0575252 0.26884 -0.0603857 -0.221964 0.438302 0.733002 1.09914 0.423004 1.50284 0.166667 0.302443 -0.0580083 -0.338866 -0.435855 -0.0905947
internal_count=30293 23130 7060 6733 122 16070 698 239 209 459 220 117 327 37 239 208 115 7163 6063 1686
shrinkage=0.1


Tree=25
num_leaves=21
num_cat=0
split_feature=29 4 20 34 11 29 3 4 6 18 25 47 22 30 18 36 4 38 33 12
split_gain=18.6361 9.16752 10.6486 10.9727 12.8176 8.35301 8.27253 7.96472 11.6815 13.6661 12.1891 11.5732 8.8522 8.66155 8.78447 8.68899 12.0333 7.59459 11.0415 9.57049
threshold=28.500000000000004 0.24417344173441705 0.14405035921043405 20.050000000000004 0.61721611721611713 5.6250000000000009 0.22046360917248206 -0.27718676122931396 21.500000000000004 0.13472342264477052 3.5000000000000004 19.219942679722955 0.68857758620689669 67199.500000000015 0.18245838668373804 0.31698564593301409 -1.0000000180025095e-35 0.052177858439201009 12.500000000000002 0.16515151515151455
decision_type=2 2 2 2 2 2 2 2 2 2 2 2 2 2 2 2 2 2 2 2
left_child=1 2 5 7 6 -1 17 8 10 11 12 -10 -4 14 -9 16 -15 18 -5 -20
right_child=-2 -3 3 4 -6 -7 -8 13 9 -11 -12 -13 -14 15 -16 -17 -18 -19 19 -21
leaf_value=0.0070363628343534327 -0.040692086490036361 -0.019479055817864008 0.12886185902876104 -0.03911764185233596 -0.047738903652817535 -0.0071497694789783746 0.020806486184341291 -0.043208649518051576 0.2707398006374267 -0.029301678957597756 -0.030503725166155033 -0.011246835472293938 0.41941326906671805 0.39721671670463521 0.0057523185185971593 0.0089813406127563986 0.0091393735143262891 0.068733983530184881 -0.016236071868120743 0.3973243096055441
leaf_count=4648 4904 3142 16 163 155 13302 1610 678 26 152 19 22 15 15 624 41 16 712 17 16
internal_value=0 0.0130633 0.0317899 0.161465 0.278938 -0.00621736 0.334857 -0.0292693 0.432569 0.122141 1.64191 1.45159 2.62693 -0.121662 -0.17949 0.84131 2.15351 0.566057 -0.0604544 1.9991
internal_count=30293 25389 22247 4297 2673 17950 2518 1624 250 200 50 48 31 1374 1302 72 31 908 196 33
shrinkage=0.1


Tree=26
num_leaves=21
num_cat=0
split_feature=29 29 2 16 0 35 5 40 30 4 15 34 3 29 0 4 17 13 26 6
split_gain=16.337 10.1205 8.24999 8.27012 13.6671 13.7384 10.362 15.5327 10.4074 9.70284 9.28415 8.52561 10.9667 7.47915 8.265 6.4694 6.45677 7.58666 6.39104 6.9895
threshold=46.000000000000007 9.7500000000000018 6.5000000000000009 0.4660633484162891 6.1500000000000004 7.5000000000000009 0.12422839506172802 0.095169479895704526 14152.500000000002 -0.048809523809523497 68.500000000000014 30.650000000000002 0.4148642429820521 24.500000000000004 3.1500000000000008 0.68585526315789458 0.27888888888888858 55.750000000000007 -302.99999999999994 64.500000000000014
decision_type=2 2 2 2 2 2 2 2 2 2 2 2 2 2 2 2 2 2 2 2
left_child=1 15 3 -3 6 -6 9 10 -9 11 -8 12 13 -5 -15 -1 -2 -18 -4 -20
right_child=16 2 18 4 5 -7 7 8 -10 -11 -12 -13 -14 14 -16 -17 17 -19 19 -21
leaf_value=0.0050457116014938439 -0.066037993968783723 -0.0050337248298612958 -0.074184612378390247 0.01152020043589151 -0.053445846858527823 0.35817724770623338 -0.051209599343830049 0.70908090811135482 0.22283686347189735 -0.064807939879260298 0.34555002002416635 0.37614945052945253 0.32337690311157163 0.34049572113592119 -0.10337316103178654 -0.09352963485870211 0.44202251954738037 -0.10390370736203497 -0.022130377927961346 0.04487658923057114
leaf_count=13213 2306 7262 521 132 253 16 44 17 17 104 15 15 21 24 20 108 16 16 5795 378
internal_value=0 0.005637 -0.0965532 -0.00175499 0.429798 -0.305954 0.895204 2.27275 4.58206 0.587528 0.765855 0.980466 0.778283 0.462317 2.18281 0.0466354 -0.602582 1.88075 -0.222379 -0.180981
internal_count=30293 27955 14634 7940 678 269 409 93 34 316 59 212 197 176 44 13321 2338 32 6694 6173
shrinkage=0.1


Tree=27
num_leaves=21
num_cat=0
split_feature=29 4 5 29 18 5 29 0 34 25 12 19 0 17 28 15 29 9 47 29
split_gain=14.1751 9.02686 12.6207 9.15624 8.82394 14.3949 11.7179 11.4175 10.4831 10.3389 9.80313 9.56217 10.0611 9.35745 11.3127 11.3978 9.18906 8.97926 8.7435 9.77248
threshold=34.500000000000007 -0.025320512820512498 -0.11506935687263499 18.500000000000004 0.09032634032633953 0.033908045977011005 3.5500000000000003 12.350000000000003 24.650000000000002 5.5000000000000009 0.099180327868852017 0.31909090909090904 11.750000000000002 0.08893280632411002 7.5000000000000009 70.500000000000014 2.5500000000000003 0.4045454545454546 23.100000000000005 17.884934797642181
decision_type=2 2 2 2 2 2 2 2 2 2 2 2 2 2 2 2 2 2 2 2
left_child=1 2 -1 -3 5 -4 -7 8 16 17 -10 12 18 14 15 -11 -6 -8 -12 -20
right_child=-2 3 4 -5 7 6 9 -9 10 13 11 -13 -14 -15 -16 -17 -18 -19 19 -21
leaf_value=-0.0050534318324266516 -0.048354719399492652 -0.0035153529838704428 -0.010750693550586103 -0.038795756655630967 0.099244324352079097 0.17624380856859079 0.0252147202665256 -9.2755726452818015e-05 0.015166621056131133 -0.0286586926051993 0.054211357874744265 -0.041311593982065263 0.28411808921228748 0.34111014376534765 0.29460052154783872 0.24504459142419172 0.01551695548375218 -0.10031792468574673 0.11317279718787963 0.36078469193999774
leaf_count=5867 3200 10875 2356 3078 58 27 536 1105 328 99 370 54 17 22 29 23 1959 76 174 40
internal_value=0 0.00677187 0.0622049 -0.0611756 0.147023 0.0116728 0.422797 0.233579 0.339559 0.290317 0.597065 0.805846 0.915138 1.09857 0.775548 0.301347 0.210896 0.0774193 0.835834 1.30636
internal_count=30293 27093 13140 13953 7273 3168 812 4105 3000 785 983 655 601 173 151 122 2017 612 584 214
shrinkage=0.1


Tree=28
num_leaves=21
num_cat=0
split_feature=29 4 2 12 16 26 42 2 0 47 33 27 38 29 4 22 20 37 7 20
split_gain=12.4886 8.87896 7.71549 8.8873 7.84813 10.1123 9.46356 7.42982 7.37509 7.51726 6.96535 9.73639 6.85868 9.94984 9.64849 12.4248 12.1737 10.2157 11.6283 7.79197
threshold=46.000000000000007 0.50373134328358216 7.5000000000000009 0.60555555555555518 0.069047619047618511 437.50000000000006 1.9935064935064932 14.500000000000002 70.350000000000009 16.850000000000005 9.5000000000000018 52218.000000000007 0.22933743169398854 1.4249999999999992 -0.08248299319727849 1.4999999999999998 0.17509124087591155 0.19523809523809504 1325.0000000000002 0.040472290472290014
decision_type=2 2 2 2 2 2 2 2 2 2 2 2 2 2 2 2 2 2 2 2
left_child=1 2 4 8 5 6 -1 10 -4 -10 11 -5 13 -6 15 16 19 -18 -19 -14
right_child=-2 -3 3 7 12 -7 -8 -9 9 -11 -12 -13 14 -15 -16 -17 17 18 -20 -21
leaf_value=-0.057394705526265799 -0.055513129167090031 -0.045987712185014497 -0.013093293028850872 0.23775511044380498 0.15118482152029517 0.27067410310703383 0.12123306742709035 0.24487282389491793 0.14109222602557045 -0.001272316480844101 0.0066028886430637328 0.020960493805577792 0.13556811152855688 0.0072946702018611437 -0.037793349379623142 -0.089125329416222268 -0.072110121274734193 0.29507004975220447 0.034646041431744316 -0.0023981992576978441
leaf_count=550 2338 929 8121 23 22 16 26 15 46 86 273 30 44 16496 764 84 17 26 20 367
internal_value=0 0.00420033 0.0121298 -0.0812944 0.046942 -0.367992 -0.442044 0.354067 -0.112992 0.571786 0.272912 1.07308 0.0578858 0.0774533 -0.150271 0.142634 0.33255 1.39212 1.92837 0.117629
internal_count=30293 27955 27026 8594 18432 592 576 341 8253 132 326 53 17840 16518 1322 558 474 63 46 411
shrinkage=0.1


Tree=29
num_leaves=21
num_cat=0
split_feature=29 26 25 40 15 30 38 4 33 39 35 40 36 20 36 29 20 34 6 8
split_gain=11.3817 7.40737 9.52569 9.97342 9.49778 8.8501 8.51611 8.42778 12.3614 11.4729 14.6985 8.23729 15.7895 9.11955 17.4006 16.8224 11.4311 17.9747 8.02922 10.4588
threshold=11.500000000000002 110.50000000000001 1.0000000180025095e-35 0.11254139072847652 11.500000000000002 24564.500000000004 0.3944444444444441 -0.25893997445721545 5.5000000000000009 0.27888888888888858 4.6895454393193328 0.11331691297208503 0.39565217391304308 0.03664130678004001 0.46410256410256362 20.500000000000004 0.024099883855981007 22.250000000000004 64.500000000000014 0.39009661835748705
decision_type=2 2 2 2 2 2 2 2 2 2 2 2 2 2 2 2 2 2 2 2
left_child=-1 2 7 6 -5 -3 18 9 -9 -2 -11 12 -6 14 16 -16 -13 -18 -4 -20
right_child=1 5 3 4 11 -7 -8 8 -10 10 -12 13 -14 -15 15 -17 17 -19 19 -21
leaf_value=0.0032275034786728007 -0.00066822336509916435 -0.013116221554617422 -0.017388762858058762 0.360103220956624 0.50725142821035474 -0.066280751771742683 0.34780627244568829 0.42061935217515772 -0.046252478853705092 0.47612733271793051 -0.025825236644820872 -0.038425985964195275 -0.1053377848741207 0.013018460238378477 0.59083882128600129 -0.10379189794164134 -0.0001622673324709432 0.69174306829784582 0.012336740839808546 0.2113364308079492
leaf_count=15619 583 2137 4713 17 19 1462 15 15 2947 23 18 106 17 2125 21 18 24 15 308 91
internal_value=0 -0.130185 -0.0661627 0.0306896 0.277553 -0.337311 -0.103774 -0.296655 -0.435351 0.184645 2.30783 0.25058 2.42455 0.214526 1.26045 4.02101 0.44335 2.7638 -0.115998 0.599505
internal_count=30293 14674 11075 7489 2362 3599 5127 3586 2962 624 41 2345 36 2309 184 39 145 39 5112 399
shrinkage=0.1


Tree=30
num_leaves=21
num_cat=0
split_feature=29 4 36 0 7 7 26 5 28 1 13 6 36 5 36 25 30 9 26 7
split_gain=10.1754 7.48958 7.05536 12.8396 15.8457 15.8077 12.5711 10.1021 8.90505 6.5398 10.5361 13.7773 17.4116 13.7588 31.3768 14.752 15.21 12.6325 19.1783 15.6737
threshold=46.000000000000007 0.68585526315789458 0.13484848484848452 11.750000000000002 1534.5000000000002 1622.5000000000002 -401.49999999999994 0.037749287749287007 5.5000000000000009 5.5000000000000009 55.750000000000007 69.500000000000014 0.23303167420814405 0.12422839506172802 0.19523809523809504 7.5000000000000009 27397.500000000004 0.11651583710407203 217.00000000000003 1229.0000000000002
decision_type=2 2 2 2 2 2 2 2 2 2 2 2 2 2 2 2 2 2 2 2
left_child=1 2 3 -1 6 7 -5 -6 -7 -4 11 13 -13 -11 -15 17 -17 -16 19 -19
right_child=-2 -3 9 4 5 8 -8 -9 -10 10 -12 12 -14 14 15 16 -18 18 -20 -21
leaf_value=-0.029225010172415092 -0.05193946643825479 -0.067673653105066608 0.0050972678256001316 0.39231092471956841 0.24635650236075901 0.22055186873772042 -0.011931580545064428 0.70739769471375513 -0.068986835490231851 -0.0030177126043884981 -0.019191502083474032 0.55397836708206549 0.046940600216985179 0.5494707806601139 -0.069725000855917249 0.026900536473258775 0.65535070865995015 0.24334528328327051 0.5376491211148392 -0.0500368916106574
leaf_count=2735 2338 455 18216 15 15 26 260 15 36 1850 3892 17 35 27 154 20 21 55 15 96
internal_value=0 0.00335116 0.00792098 -0.180882 0.449766 1.83807 0.0337823 4.10007 0.733345 0.0235319 -0.0842598 0.133887 2.27088 0.0903976 0.875802 0.524484 3.48261 0.246959 1.06135 0.557471
internal_count=30293 27955 27500 3102 367 92 275 30 62 24398 6182 2290 52 2238 388 361 41 320 166 151
shrinkage=0.1


Tree=31
num_leaves=21
num_cat=0
split_feature=29 26 25 3 35 4 43 19 2 34 40 33 34 16 27 32 1 34 12 43
split_gain=9.07075 6.99194 8.98989 8.13051 7.81769 12.601 16.367 10.112 9.23509 17.8833 22.1815 11.7995 15.9764 19.6107 22.676 16.52 9.52839 8.42812 8.70881 9.82158
threshold=13.500000000000002 104.00000000000001 1.0000000180025095e-35 0.65942028985507217 4.6895454393193328 -0.5985074626865664 9.5000000000000018 0.48333333333333311 11.500000000000002 19.150000000000002 0.072522206638616013 8.5000000000000018 18.450000000000003 0.31414473684210503 34235.500000000007 0.32575757575757558 6.5000000000000009 29.050000000000004 0.44097222222222204 8.5000000000000018
decision_type=2 2 2 2 2 2 2 2 2 2 2 2 2 2 2 2 2 2 2 2
left_child=-1 2 3 -2 -4 6 -6 8 11 16 -11 12 13 15 -15 -7 -10 18 -13 -20
right_child=1 -3 4 -5 5 7 -8 -9 9 10 -12 17 -14 14 -16 -17 -18 -19 19 -21
leaf_value=0.0022809412484361747 -0.035084421741011021 -0.037486287108957281 -0.0083206907139952487 0.29629131498542444 0.33108500533165097 -0.062709894958931103 -0.10858932979527469 0.36556406540336178 -0.072939569774179897 0.78006468872681145 0.13302176410589367 -0.033788868213841354 -0.011350204987825616 -0.10562257204676791 0.65289602878096009 0.50738068710676354 0.34029984912461331 0.33406713881376265 0.40383353713506864 0.0079476508205849894
leaf_count=17601 3149 3135 4467 19 37 67 29 17 105 27 38 1288 148 15 26 15 28 18 23 41
internal_value=0 -0.139256 -0.0679436 -0.324936 0.0415592 0.321277 2.02389 0.214167 0.168968 1.32281 3.47149 0.0442291 0.963396 2.28186 4.62345 0.626312 -0.00675903 -0.177467 -0.228818 1.50767
internal_count=30293 12692 9557 3168 6389 1922 66 1856 1839 198 65 1641 271 123 41 82 133 1370 1352 64
shrinkage=0.1


Tree=32
num_leaves=21
num_cat=0
split_feature=36 0 7 33 27 16 15 23 22 3 26 4 1 36 5 6 5 4 32 30
split_gain=8.44007 10.121 9.95443 8.84544 8.00706 7.16545 7.72639 9.92046 16.3892 8.56585 6.42922 6.3936 6.16025 8.08109 13.929 14.826 7.2932 15.4846 7.06242 7.80623
threshold=0.13484848484848452 11.750000000000002 1534.5000000000002 11.500000000000002 452250.00000000006 0.31009615384615358 28.500000000000004 0.37500000000000006 0.99358974358974372 0.29459980713596862 -401.49999999999994 0.68585526315789458 5.5000000000000009 0.17914438502673755 0.3294973401367926 69.500000000000014 0.12588028169014054 0.036375661375660513 0.4852941176470586 918.50000000000011
decision_type=2 2 2 2 2 2 2 2 2 2 2 2 2 2 2 2 2 2 2 2
left_child=1 5 10 4 -4 6 7 8 9 -1 -3 12 -2 14 15 16 18 -18 19 -14
right_child=11 2 3 -5 -6 -7 -8 -9 -10 -11 -12 -13 13 -15 -16 -17 17 -19 -20 -21
leaf_value=-0.02973049243481642 0.0043144703751331328 0.22562409768018432 0.332304439197662 -0.0085166554925342926 0.071057859099086337 -0.0042985541133909681 -0.055562667114305068 -0.064982518761844826 0.58615636503735602 0.32504231477973983 -0.013603104654511689 -0.067451993893626272 0.2949719006417203 -0.012085072518846683 0.49700090994017981 0.33194999879882042 0.47207653555195067 0.022677594252185934 0.22879480752803794 -0.035145352232669756
leaf_count=71 19080 18 27 46 28 1193 2110 74 21 17 293 426 15 6342 19 27 17 66 22 381
internal_value=0 -0.205223 0.33408 1.32489 2.15625 -0.302242 -0.470829 0.446355 1.5228 0.632295 -0.00657174 0.0124519 0.0165867 -0.0870847 0.437433 0.326075 0.142192 1.37654 -0.090647 -0.229725
internal_count=30293 3898 412 101 55 3486 2293 183 109 88 311 26395 25969 6889 547 528 501 83 418 396
shrinkage=0.1


Tree=33
num_leaves=21
num_cat=0
split_feature=29 16 2 26 4 45 6 19 30 1 19 34 11 47 2 13 40 44 45 5
split_gain=8.12297 6.6724 7.06825 6.88904 9.50271 10.316 9.63159 7.97499 11.5012 14.0657 19.1812 12.4904 16.249 7.84089 9.01557 7.40983 6.67438 9.21023 9.68666 8.97588
threshold=46.000000000000007 0.078461538461538013 6.5000000000000009 -174.99999999999997 -0.36803405572755349 0.32666666666666661 32.500000000000007 0.13714733542319704 5101.5000000000009 4.5000000000000009 0.22902097902097854 14.250000000000002 0.23368794326241105 32.500000000000007 9.5000000000000018 57.750000000000007 0.10538387252534952 0.30495169082125556 0.11269841269841252 0.033908045977011005
decision_type=2 2 2 2 2 2 2 2 2 2 2 2 2 2 2 2 2 2 2 2
left_child=1 -1 -3 4 5 6 15 -6 9 -9 -11 12 -10 14 -13 -4 17 -5 19 -19
right_child=-2 2 3 16 7 -7 -8 8 11 10 -12 13 -14 -15 -16 -17 -18 18 -20 -21
leaf_value=-0.031967338602751562 -0.048140057164069688 0.0052021822570543384 -0.00092923909002672967 -0.026571848454735227 -0.057621088056959271 0.28645583116086798 -0.06267469735488089 -0.060490409366758424 0.51919507366869699 0.52594059322321562 -0.023205812906055567 -0.098895227418789339 -0.03074456819784991 0.13777861302310043 0.025808604259808101 0.29972563705693667 0.0050746960299860866 0.0082731491723746428 -0.030537853233734414 0.092561420239309744
leaf_count=952 2338 15881 18 3274 1091 18 71 23 17 21 15 200 22 28 127 21 4969 487 414 306
internal_value=0 0.00234773 0.0109545 -0.0624486 -0.290263 0.615837 0.17947 -0.381739 0.0120633 1.50749 2.99563 -0.211348 2.09082 -0.392498 -0.552019 1.53636 -0.0265007 -0.14542 0.122176 0.377509
internal_count=30293 27955 27003 11122 1672 128 110 1544 453 59 36 394 39 355 327 39 9450 4481 1207 793
shrinkage=0.1


Tree=34
num_leaves=21
num_cat=0
split_feature=4 0 7 1 32 40 44 30 4 5 34 38 12 0 44 26 16 30 16 39
split_gain=7.16015 7.86477 9.27306 6.8834 6.60926 14.1593 8.57542 9.34359 7.56878 6.4849 8.69144 9.9801 7.92963 16.9306 16.8221 14.8527 11.952 11.8582 11.4321 13.6201
threshold=0.24417344173441705 2.0500000000000003 927.50000000000011 5.5000000000000009 0.65151515151515116 0.11604676400947052 0.18898809523809504 16455.500000000004 -0.20550527903469049 0.10102040816326502 27.650000000000002 0.22933743169398854 0.29679679679679655 9.9500000000000011 0.11882352941176402 -102.99999999999999 0.27888888888888858 11376.500000000002 0.4522727272727271 0.18953130345535354
decision_type=2 2 2 2 2 2 2 2 2 2 2 2 2 2 2 2 2 2 2 2
left_child=3 -2 -3 9 -5 8 7 -7 -6 -1 11 12 18 14 15 -14 -16 -18 -11 -20
right_child=1 2 -4 4 5 6 -8 -9 -10 10 -12 -13 13 -15 16 -17 17 -19 19 -21
leaf_value=0.0020235891339907513 -0.066678223629913796 0.2108921600574378 -0.012860581669362093 -0.011924049595421668 0.12859095589428157 -0.086679563395701861 0.27034827409607465 0.15914013127190541 -0.120570413864104 0.0083797203540515435 -0.034394467717357956 -0.070754861203962488 0.38320066959320348 0.019162209952849049 0.079764084572924401 0.03304390248976119 0.57663778183056935 0.23716845577974457 0.053771744552015659 0.28819993444774611
leaf_count=16450 764 27 3221 7118 22 23 27 32 65 1415 351 125 19 252 25 140 20 26 139 32
internal_value=0 -0.186019 -0.104018 0.011682 -0.0965983 0.530843 1.30589 0.666908 -0.596625 0.0400463 0.224366 0.313099 0.37869 0.749191 1.49162 0.75992 2.80222 3.75093 0.225899 1.03708
internal_count=30293 4012 3248 26281 7287 169 82 55 87 18994 2544 2193 2068 482 230 159 71 46 1586 171
shrinkage=0.1


Tree=35
num_leaves=21
num_cat=0
split_feature=29 18 31 42 4 5 11 0 42 39 40 40 36 25 0 29 18 44 12 19
split_gain=6.73834 6.76585 10.6686 7.74735 6.06481 9.23961 7.06764 6.93639 8.58148 8.59101 25.9951 9.58599 9.45654 8.53727 10.5841 8.45358 7.92868 9.71115 6.70448 9.40189
threshold=46.000000000000007 0.19462481962481903 2.5000000000000004 2.3117408906882591 -0.025320512820512498 -0.11506935687263499 0.95833333333333315 28.850000000000005 0.59317129629629617 0.037749287749287506 0.10128226204175553 0.11717115585774052 0.23904761904761854 1.5000000000000002 32.850000000000001 1.9249999999999992 0.04210992907801351 0.24695121951219504 0.10741758241758202 0.14039408866995004
decision_type=2 2 2 2 2 2 2 2 2 2 2 2 2 2 2 2 2 2 2 2
left_child=4 3 -3 -2 5 6 18 -6 9 13 -11 -12 -13 16 -15 -10 -9 -18 19 -1
right_child=1 2 -4 -5 7 -7 -8 8 15 10 11 12 -14 14 -16 -17 17 -19 -20 -21
leaf_value=0.033484397412421006 -0.067259174749156256 -0.027210172800792323 0.34416876094723114 0.35827069834352715 -0.0081671869300640621 0.01186693754368528 -0.076623859418009602 0.24234179795471383 0.09413650005722847 0.48136172055224691 -0.12406651902679283 0.32873407899591156 0.069030450314899572 0.18472916016212573 -0.090755063872486011 -0.015826288776858231 -0.031210707730410181 0.16693971270050825 -0.0094589699104170935 -0.023995538987146639
leaf_count=1149 2177 113 20 28 13288 7458 115 26 34 21 23 19 120 18 118 613 76 34 4415 428
internal_value=0 -0.450596 0.819117 -0.610265 0.0018526 0.0468737 -0.049636 -0.0541484 0.180937 0.535698 1.0596 0.675181 0.981396 0.149257 -0.500178 -0.0343553 0.687561 0.34549 -0.0322975 0.161492
internal_count=30293 2338 133 2205 27955 13565 6107 14390 1102 455 183 162 139 272 136 647 136 110 5992 1577
shrinkage=0.1


Tree=36
num_leaves=21
num_cat=0
split_feature=29 16 2 35 25 9 33 4 4 13 46 5 27 38 0 16 4 20 11 11
split_gain=6.36647 6.79756 6.34728 6.31154 11.4551 7.64854 12.7633 12.4901 9.81777 8.28582 7.99363 7.94098 7.75797 20.2342 8.60947 6.87485 8.47649 9.77446 12.0415 10.6693
threshold=10.500000000000002 0.078461538461538013 6.5000000000000009 5.5000000000000009 1.0000000180025095e-35 0.26794871794871755 11.500000000000002 0.090909090909090523 -0.18634259259259248 55.750000000000007 6.5000000000000009 -0.57979626485568703 505914.50000000006 0.10279843444226952 7.5499999999999998 0.20416666666666652 -0.5985074626865664 0.020620748299319504 0.18090909090909005 0.16302800189843306
decision_type=2 2 2 2 2 2 2 2 2 2 2 2 2 2 2 2 2 2 2 2
left_child=-1 -2 3 -3 -5 11 7 8 9 -7 -8 -6 14 -14 15 -13 -17 18 -18 -19
right_child=1 2 -4 4 5 6 10 -9 -10 -11 -12 12 13 -15 -16 16 17 19 -20 -21
leaf_value=0.0025929542148472708 -0.062155410437037574 -0.0048058630306421152 -0.018909941802094554 -0.04487008825818737 0.32830288725272716 0.3878492633843183 -0.10586446512856246 0.55730315429806943 -0.047057638057659112 0.10509632372464615 0.24642813279447609 -0.034956649656158599 0.56835082579540008 -0.10609263192006564 -0.072346136909306163 0.26494322549935706 0.50520473046348691 -0.075994242884358187 -0.10429032382372001 0.087287984094881255
leaf_count=14316 735 6668 7103 420 16 25 69 19 38 28 17 211 18 21 156 26 16 127 17 247
internal_value=0 -0.0909567 -0.0705454 0.0180372 0.294082 0.524855 1.29381 2.10511 1.5703 2.3948 -0.230947 0.329771 0.263654 2.30449 0.168089 0.422222 0.723463 0.51653 3.00875 0.312314
internal_count=30293 15977 15242 8139 1471 1051 196 110 91 53 86 855 839 39 800 644 433 407 33 374
shrinkage=0.1


Tree=37
num_leaves=21
num_cat=0
split_feature=36 0 13 15 32 12 17 16 4 27 7 27 33 18 3 27 29 4 45 20
split_gain=6.10761 8.31203 8.4119 10.0502 8.78647 11.0941 10.1211 6.00753 5.60678 6.24129 5.2666 12.899 8.13257 9.9198 8.75427 7.69235 7.01582 6.99932 8.60835 14.0799
threshold=0.10263157894736802 11.950000000000001 54.750000000000007 27.500000000000004 0.21980676328502405 0.30602006688963163 0.078461538461538013 0.28285714285714258 0.68585526315789458 635057.50000000012 1756.0000000000002 88732.500000000015 8.5000000000000018 0.039736842105263008 0.53950103950103911 27720.000000000004 14.500000000000002 -0.17047223663725949 0.06559139784946201 0.14072212916433954
decision_type=2 2 2 2 2 2 2 2 2 2 2 2 2 2 2 2 2 2 2 2
left_child=1 7 -3 -4 -5 6 -6 -1 -2 -10 12 -12 13 -9 -14 -16 -13 -15 19 -19
right_child=8 2 3 4 5 -7 -8 10 9 -11 11 16 14 17 15 -17 -18 18 -20 -21
leaf_value=-0.050464986977984842 0.0011403993021216058 -0.087470486462671498 0.39197810279819928 -0.028038919326494629 0.45794275222251413 -0.0068792330965739244 0.090686298268973342 0.30216435879065212 -0.079754982790743931 0.26877984132139393 -0.04910289064932491 0.28969500551492294 -0.067806276232320814 -0.086649045959503818 -0.038488219414631902 0.31770657607730984 0.023047447004831387 0.33414437941145375 -0.1148276676000719 -0.051142809720977234
leaf_count=1671 27038 53 16 87 21 27 25 16 436 16 95 27 538 60 17 15 55 32 19 29
internal_value=0 -0.216559 0.463017 0.861458 0.591218 1.49347 2.78699 -0.311988 0.00771771 -0.651768 -0.0345433 0.655606 -0.200221 0.54057 -0.495785 1.31313 1.91723 0.163137 0.902488 1.68686
internal_count=30293 2803 229 176 160 73 46 2574 27490 452 903 177 726 156 570 32 82 140 80 61
shrinkage=0.1


Tree=38
num_leaves=21
num_cat=0
split_feature=29 29 16 11 26 26 42 4 40 44 37 13 30 42 19 31 8 19 4 16
split_gain=5.76571 5.03135 6.04838 6.30037 7.1372 5.52066 6.4677 6.14125 6.81195 6.19839 10.2082 9.85316 6.87902 5.5965 8.30353 7.68699 7.26926 5.40645 5.35256 11.8756
threshold=56.000000000000007 2.5500000000000003 0.078461538461538013 0.32725464190981363 232.50000000000003 47.500000000000007 1.8708333333333333 0.046536796536796009 0.14782158670525755 0.28062500000000007 0.08893280632411002 59.250000000000007 14024.500000000002 1.0692508710801392 0.32738095238095205 2.5000000000000004 0.26975051975051956 0.08893280632411002 -0.19960159362549748 0.10263157894736802
decision_type=2 2 2 2 2 2 2 2 2 2 2 2 2 2 2 2 2 2 2 2
left_child=1 5 3 -3 -5 7 13 9 17 10 -1 -12 -11 14 16 -15 -7 -9 19 -4
right_child=-2 2 18 4 -6 6 -8 8 -10 12 11 -13 -14 15 -16 -17 -18 -19 -20 -21
leaf_value=-0.068441737258152904 -0.062048361203040997 -0.056142439925058213 0.10858974469959726 -0.0062857631075826023 0.19819907348231947 0.038788553522247131 0.13963570103878506 -0.01391284493384436 0.024629954540686227 -0.028006346589800796 0.043167795170559804 -0.12597094225280889 0.092297725409683729 -0.059610425751905553 -0.098126147523701121 0.085198633557514267 0.14109690294686084 -0.13201554160317672 -0.0035458355990403826 0.0055365310094420781
leaf_count=70 1146 737 151 242 23 140 24 30 42 28 140 16 70 55 15 22 37 40 20546 6719
internal_value=0 -0.000100748 -0.0127536 -0.333426 0.148689 0.164358 0.382546 0.0178776 -0.406095 0.158032 -0.028428 0.259203 0.586008 0.290601 0.476636 -0.182292 0.601389 -0.812743 -0.00435266 0.0742985
internal_count=30293 29147 28418 1002 265 729 293 436 112 324 226 156 98 269 192 77 177 70 27416 6870
shrinkage=0.1


Tree=39
num_leaves=21
num_cat=0
split_feature=4 2 5 7 20 34 4 43 6 7 34 32 22 39 0 26 30 18 20 11
split_gain=5.31269 5.3195 8.19594 12.5458 51.1572 9.69322 9.09574 11.7329 15.0717 11.818 10.3634 8.64873 8.50675 8.03799 7.52222 6.98638 10.4586 6.66508 9.78454 18.3527
threshold=0.50373134328358216 1.5000000000000002 0.12422839506172802 1025.0000000000002 0.088478556841388015 12.850000000000003 0.22281323877068504 7.5000000000000009 60.500000000000007 1375.0000000000002 21.950000000000003 0.36038961038961009 1.6609195402298849 0.075774971297358523 2.75 236.50000000000003 15931.500000000002 0.062895569620253014 0.059940119760478514 0.39852941176470558
decision_type=2 2 2 2 2 2 2 2 2 2 2 2 2 2 2 2 2 2 2 2
left_child=1 2 14 4 -4 -5 7 8 9 10 -7 -9 -8 -11 15 -1 -17 -16 19 -19
right_child=-2 -3 3 5 -6 6 12 11 -10 13 -12 -13 -14 -15 17 16 -18 18 -20 -21
leaf_value=-0.048576016376337156 -0.038285482028749776 -0.0014809789882775557 0.81294158271695549 0.32153537432874674 -0.023267653523712732 -0.11056198223186441 -0.11061066397916158 -0.055364932480276068 -0.12172547995004888 0.13917802272178623 0.25829799664098413 0.24609082600389282 0.16124252330297761 0.52241654999057752 -0.017443485751175099 0.32529183165848341 -0.021031639555540178 0.060556339914156002 0.020408086483943183 0.52358715420341773
leaf_count=455 1073 26350 15 23 33 23 121 103 21 19 25 15 15 16 538 15 34 47 1336 16
internal_value=0 0.00211922 0.133428 0.652731 2.46653 0.399831 0.256403 0.711664 1.63975 2.3782 1.09184 -0.129914 -0.618345 3.99664 0.0756769 -0.336984 0.917012 0.149796 0.248393 1.62954
internal_count=30293 29220 2870 429 48 381 358 222 104 83 48 118 136 35 2441 504 49 1937 1399 63
shrinkage=0.1


end of trees

feature importances:
rating=128
changeInOddsMorning=96
API=37
changeInOddsNightBefore=31
jockeyLast3Months=26
runnerID=25
trainerLast25PlaceStrikeRate=25
trainerLastYear=23
jockeyLastYear=22
temperature=21
goodWin=20
lastStartDistanceChange=20
humidity=19
bar=18
jockeyLast25PlaceStrikeRate=18
careerPlace=17
goodPlace=17
hcp=16
distance=15
prizeMoney=14
lastStart=13
trainerLast3Months=13
trainerTrend=13
jockeyLastMonth=12
starters=12
windspeed=12
age=11
slowWin=11
class=10
distanceWin=10
trainerLastMonth=10
jockeyTrend=8
trackRating=8
trainerLast25StrikeRate=8
venuePlace=7
jockeyLast25StrikeRate=6
sex=6
raceNum=5
venueWin=4
distancePlace=3
venue=3
weather=3
lastFourRacesPlacePerc=2
gearchanges=1
lastFourRacesWinPerc=1

parameters:
[boosting: gbdt]
[objective: binary]
[metric: binary,none]
[tree_learner: serial]
[device_type: cpu]
[data: ]
[valid: ]
[num_iterations: 100]
[learning_rate: 0.1]
[num_leaves: 21]
[num_threads: -1]
[max_depth: -1]
[min_data_in_leaf: 15]
[min_sum_hessian_in_leaf: 0.001]
[bagging_fraction: 1]
[bagging_freq: 0]
[bagging_seed: 5105]
[feature_fraction: 1]
[feature_fraction_seed: 2938]
[early_stopping_round: 0]
[max_delta_step: 0]
[lambda_l1: 0]
[lambda_l2: 0]
[min_gain_to_split: 0]
[drop_rate: 0.1]
[max_drop: 50]
[skip_drop: 0.5]
[xgboost_dart_mode: 0]
[uniform_drop: 0]
[drop_seed: 27056]
[top_rate: 0.2]
[other_rate: 0.1]
[min_data_per_group: 100]
[max_cat_threshold: 32]
[cat_l2: 10]
[cat_smooth: 10]
[max_cat_to_onehot: 4]
[top_k: 20]
[monotone_constraints: ]
[feature_contri: ]
[forcedsplits_filename: ]
[refit_decay_rate: 0.9]
[verbosity: 3]
[max_bin: 255]
[min_data_in_bin: 3]
[bin_construct_sample_cnt: 200000]
[histogram_pool_size: -1]
[data_random_seed: 87]
[output_model: LightGBM_model.txt]
[snapshot_freq: -1]
[input_model: ]
[output_result: LightGBM_predict_result.txt]
[initscore_filename: ]
[valid_data_initscores: ]
[pre_partition: 0]
[enable_bundle: 1]
[max_conflict_rate: 0]
[is_enable_sparse: 1]
[sparse_threshold: 0.8]
[use_missing: 1]
[zero_as_missing: 0]
[two_round: 0]
[save_binary: 0]
[enable_load_from_binary_file: 1]
[header: 0]
[label_column: ]
[weight_column: ]
[group_column: ]
[ignore_column: ]
[categorical_feature: ]
[predict_raw_score: 0]
[predict_leaf_index: 0]
[predict_contrib: 0]
[num_iteration_predict: -1]
[pred_early_stop: 0]
[pred_early_stop_freq: 10]
[pred_early_stop_margin: 10]
[convert_model_language: ]
[convert_model: gbdt_prediction.cpp]
[num_class: 1]
[is_unbalance: 0]
[scale_pos_weight: 1]
[sigmoid: 1]
[boost_from_average: 1]
[reg_sqrt: 0]
[alpha: 0.9]
[fair_c: 1]
[poisson_max_delta_step: 0.7]
[tweedie_variance_power: 1.5]
[max_position: 20]
[label_gain: ]
[metric_freq: 1]
[is_provide_training_metric: 0]
[eval_at: ]
[num_machines: 1]
[local_listen_port: 12400]
[time_out: 120]
[machine_list_filename: ]
[machines: ]
[gpu_platform_id: -1]
[gpu_device_id: -1]
[gpu_use_dp: 0]

end of parameters

pandas_categorical:[]
