tree
version=v2
num_class=1
num_tree_per_iteration=1
label_index=0
max_feature_idx=100
objective=binary sigmoid:1
feature_names=API age bar bettingOdds careerFirstUpPlace careerFirstUpWin careerPlace careerWin changeInOddsMorning changeInOddsNightBefore class compBetterPerformIndexL3M compBetterPerformIndexLM compBetterPerformIndexLTM compBetterPerformIndexTrackL3M compBetterPerformIndexTrackLM compBetterPerformIndexTrackLTM compPlaceIndexL3M compPlaceIndexLM compPlaceIndexLTM compPlaceIndexTrackL3M compPlaceIndexTrackLM compPlaceIndexTrackLTM compWinIndexL3M compWinIndexLM compWinIndexLTM compWinIndexTrackL3M compWinIndexTrackLM compWinIndexTrackLTM daysSinceLastStart deadPlace deadWin differentJockey distance distancePlace distanceWin eventID fastPlace fastWin firstUp flucsRatioROC flucsReversionRatio gearchanges goodPlace goodWin hcp heavyPlace heavyWin horseLastMonth horseName horseTrend humidity jockeyClaim jockeyHorseLast3Months jockeyHorseLastMonth jockeyHorseLastYear jockeyHorseTrend jockeyLast25PlaceStrikeRate jockeyLast25StrikeRate jockeyLast3Months jockeyLastMonth jockeyLastYear jockeyName jockeyTrainerCombinedIndex jockeyTrend lastFourRacesPlacePerc lastFourRacesWinPerc lastStart lastStartDistanceChange peakFitnessIndicator placePerformAtWeight prizeMoney raceNum rating sex slowPlace slowWin starters temperature trackCondition trackRating trainerLast25PlaceStrikeRate trainerLast25StrikeRate trainerLast3Months trainerLastMonth trainerLastYear trainerName trainerTrend venue venueDistancePlace venueDistanceWin venuePlace venueWin weather winBarrierDistanceLTM winBarrierLTM winBarrierTrackDistanceLTM winBarrierTrackLTM winPerformAtWeight windspeed bettingOds
feature_infos=[0:542.79999999999995] [2:12] [1:24] [0:301] [0:1] [0:1] [0:1] [0:1] [-1:5.486486486486486] [-1:4.9459459459459456] [0:86] [0:0.87930588409919008] [0:0.87930588409919008] [0:0.76448558975517611] [0:0.87930588409919008] [0:0.87930588409919008] [0:0.79113068966504607] [0:0.95181271604066708] [0:1] [0:0.91330366733159407] [0:1] [0:1] [0:1] [0:0.99999999999999911] [0:0.97754528076264002] [0:0.97349403885711405] [0:0.99999999999999911] [0:0.97754528076264002] [0:0.96393715260088308] [1:983] none none none [800:4500] [0:1] [0:1] [113716001:119483409] [0:1] [0:1] none [-1:1] [0:0.96482412060301503] [0:1] [0:1] [0:1] [49:74] [0:1] [0:1] [0:1] none [0:4] [0:100] [-4:4] [0:1] [0:1] [0:1] [0:3] [0:1] [0:1] [0:1] [0:1] [0:1] none [0:35] [0:19] [0:1] [0:1] [0:9] [-2550:2386] [0:3] [0:1] [0:19290425] [1:11] [0:500] [0:5] [0:1] [0:1] [2:23] [4.7999999999999998:39.700000000000003] none [1:10] [0:1] [0:1] [0:1] [0:1] [0:1] none [0:13] [0:22] [0:1] [0:1] [0:1] [0:1] [0:10] [0:1] [0:1] [0:1] [0:1] [0:1] [0:63] [1.0800000000000001:301]
tree_sizes=1704 1720 1737 1721 1743 1747 1748 1749 1740 1729 1735 1733 1771 1769 1768 1733 1742 1735 1730 1758 1747 1740 1736 1731 1728 1743 1732 1737 1752 1753 1732 1740 1737 1721 1736 1755 1708 1727 1734 1714

Tree=0
num_leaves=21
num_cat=0
split_feature=100 3 3 3 3 100 3 3 99 64 73 29 9 53 0 82 20 3 83 40
split_gain=4918.02 1003.43 763.246 191.904 164.975 104.369 98.8525 64.7374 36.6092 33.0952 32.5177 31.8311 31.1238 29.6298 36.8057 39.8314 29.555 27.0329 26.8151 25.9813
threshold=4.8250000000000002 2.5250000000000004 10.500000000000002 1.7150000000000003 3.5250000000000004 6.7500000000000009 19.500000000000004 1.4200000000000002 25.950000000000003 0.37553418803418809 3.6500000000000008 257.50000000000006 -0.104714912280701 0.45000000000000007 7.1500000000000012 0.31414473684210503 0.36487110858065608 2.2250000000000005 0.069883720930232526 -0.4999999999999985
decision_type=8 10 10 10 10 8 10 10 2 2 2 8 2 2 2 2 2 10 2 2
left_child=1 3 5 7 13 19 -4 -1 10 12 11 17 -10 -3 -15 16 -16 -5 -12 -2
right_child=2 4 6 8 -6 -7 -8 -9 9 -11 18 -13 -14 14 15 -17 -18 -19 -20 -21
leaf_value=-1.3748408693358285 -2.1147763201487342 -1.9929493416491182 -2.2294325841279448 -1.8135890789832896 -2.0685954400755442 -2.1866531404603635 -2.2664299285132441 -1.6746147162994756 -1.6462797682427046 -1.7272987393370891 -2.1280275724778148 -1.6817317058973382 -2.0500267405318562 -2.0108289758536513 -1.8881612892436119 -1.3311384759552967 -1.4129811399224743 -1.9191677002572864 -1.9096814453784481 -2.1543408396936461
leaf_count=103 3372 3091 13646 596 6250 11394 18653 332 29 418 76 121 74 234 299 16 15 476 319 3913
internal_value=0 1.86141 -0.454562 3.71198 1.38611 0.0769556 -0.761947 5.7097 3.29993 4.05977 3.05063 3.32264 2.38254 1.9436 2.63989 3.35049 3.09143 3.14135 2.22912 0.385766
internal_count=63427 12449 50978 2544 9905 18679 32299 435 2109 521 1588 1193 103 3655 564 330 314 1072 395 7285
shrinkage=1


Tree=1
num_leaves=21
num_cat=0
split_feature=100 3 3 3 3 3 3 3 3 9 80 82 40 7 29 1 6 9 0 59
split_gain=3509.56 681.085 437.335 99.2038 83.6159 77.9586 65.023 27.069 24.6928 20.6845 21.2546 25.7784 20.1866 20.0919 27.2583 25.009 32.5718 21.0648 32.2077 20.3422
threshold=4.8250000000000002 10.500000000000002 2.6750000000000003 25.000000000000004 7.2500000000000009 3.2750000000000004 1.8250000000000004 4.3750000000000009 13.500000000000002 -0.028174603174602499 6.5000000000000009 0.078461538461538013 -0.4999999999999985 0.23145604395604355 10.500000000000002 3.5000000000000004 0.29321839080459761 0.11834733893557402 3.3500000000000001 0.058608844997852509
decision_type=8 10 10 10 10 10 10 10 10 2 2 2 2 2 8 2 2 2 2 2
left_child=2 4 6 8 12 -4 9 13 -3 10 11 -1 -2 17 15 -15 -17 -7 19 -19
right_child=1 3 5 -5 -6 7 -8 -9 -10 -11 -12 -13 -14 14 -16 16 -18 18 -20 -21
leaf_value=0.58317924036153967 0.045671941376104558 -0.038179564710319781 0.15909265640325862 -0.094627565800889546 -0.015449094823688211 0.08477488626687571 0.21526642047871225 0.068676443762305847 -0.065112140086290307 0.35729992274249933 0.070678665968971405 0.25721250232026605 0.015037861774076976 0.057531845434454401 0.12557371019806321 0.24422893790974456 0.71247499354491806 0.042626063832839393 0.069274651322735623 0.40894924601615962
leaf_count=20 4060 5687 2175 14256 9375 2676 2271 2885 12356 373 40 176 5244 28 1555 41 22 19 98 70
internal_value=0 -0.42575 1.42719 -0.731502 0.0684983 1.08507 2.39413 0.927253 -0.565618 3.17352 2.53993 2.90683 0.286188 1.07848 1.35423 3.00725 4.09953 0.91903 1.93968 3.30624
internal_count=63427 50978 12449 32299 18679 9569 2880 7394 18043 609 236 196 9304 4509 1646 91 63 2863 187 89
shrinkage=0.1


Tree=2
num_leaves=21
num_cat=0
split_feature=100 3 3 3 3 3 3 0 80 33 23 37 87 91 9 83 60 14 41 63
split_gain=2697.55 438.019 385.294 73.9588 62.6958 54.6762 49.4939 25.9276 18.9289 18.4328 24.5286 20.6834 20.4602 18.1214 17.9528 20.4001 17.1102 17.0716 18.0693 20.3534
threshold=5.8750000000000009 13.500000000000002 3.2750000000000004 2.0250000000000004 8.2500000000000018 4.4750000000000005 25.000000000000004 77.350000000000009 5.5000000000000009 1505.0000000000002 0.11028697957025853 0.18333333333333304 1.9748338081671413 0.44281045751633957 0.022474747474747005 0.3578167115902961 0.51190476190476164 0.3105034518433516 0.15655637254901952 0.90990259740259716
decision_type=8 10 10 10 10 10 10 2 2 2 2 2 2 2 2 2 2 2 2 2
left_child=2 4 3 8 -2 -4 -3 16 -1 17 11 -11 -12 -9 -7 -16 -6 18 19 -5
right_child=1 6 5 9 7 14 -8 13 -10 10 12 -13 -14 -15 15 -17 -18 -19 -20 -21
leaf_value=0.23584985867650615 0.0098133451811582544 -0.061966914434193332 0.087128767088066716 0.14728951601099569 -0.029465445308624934 0.054624525300754158 -0.092421465888484766 0.086032284589545857 0.14906940776900954 0.075982143034419358 0.19970079674819607 0.33972451144351812 -0.0077753703285515915 0.49446439263090936 0.01262561608518529 0.33173882194491944 0.2225671629543729 -0.046914694458511069 0.12673294053140072 0.20857185823895596
leaf_count=833 8516 12356 5161 1023 11833 4414 14256 70 209 787 293 25 42 15 1699 21 31 33 1076 734
internal_value=0 -0.471929 0.991172 1.59788 -0.113881 0.646867 -0.779476 -0.274772 2.1897 1.41074 1.10913 0.839618 1.73766 1.58766 0.439818 0.164202 -0.288094 1.5312 1.55474 1.73019
internal_count=63427 47077 16350 5055 20465 11295 26612 11949 1042 4013 1147 812 335 85 6134 1720 11864 2866 2833 1757
shrinkage=0.1


Tree=3
num_leaves=21
num_cat=0
split_feature=100 3 3 3 3 3 3 3 0 64 80 19 83 92 24 36 4 40 72 6
split_gain=2139.44 330.514 289.278 63.9776 49.7834 49.2794 22.766 22.4518 18.895 18.3146 17.3498 17.3046 17.4546 16.7944 21.6404 20.0879 21.0952 16.3354 15.5427 15.0345
threshold=6.7500000000000009 3.2750000000000004 13.500000000000002 4.5250000000000012 2.4750000000000005 25.000000000000004 8.2500000000000018 1.4750000000000003 77.350000000000009 4.0151515151515165 5.5000000000000009 0.14994933168530153 0.25105042016806706 0.21132376395534255 0.31162698680805906 114067902.50000001 0.47222222222222204 0.2727272727272726 7.5000000000000009 0.46247654784240105
decision_type=8 10 10 10 10 10 10 10 2 2 2 2 2 2 2 2 2 2 2 2
left_child=1 4 6 -3 7 -4 -2 -1 -8 11 -9 12 13 14 -6 16 -15 -14 -17 -12
right_child=2 3 5 -5 9 -7 8 10 -10 -11 19 -13 17 15 -16 18 -18 -19 -20 -21
leaf_value=0.24000155254849292 0.0012583147120115471 0.071653678046134262 -0.058855134933838496 0.030640478491976167 0.12230779775212555 -0.090224579077759742 -0.026579637183358679 0.15904260951606086 0.12354375067063378 -0.052347539147529633 0.07315209829043394 0.07289967420267543 0.28331118365870483 0.11322942436475608 0.29684262094405939 0.02101667852492765 0.43072233278035688 0.030814298685279795 0.19141759093647048 0.17836871552310798
leaf_count=141 5132 5621 12356 9058 1290 14256 11864 1702 85 55 321 811 80 66 52 328 20 24 44 121
internal_value=0 0.737772 -0.503094 0.47731 1.28824 -0.751117 -0.169637 1.54931 -0.25338 1.03069 1.47753 1.06231 1.20443 1.14008 1.29517 0.691535 1.86927 2.26359 0.416552 1.02431
internal_count=63427 19734 43693 14679 5055 26612 17081 2285 11949 2770 2144 2715 1904 1800 1342 458 86 104 372 442
shrinkage=0.1


Tree=4
num_leaves=21
num_cat=0
split_feature=3 3 100 3 3 100 73 3 3 61 8 22 41 84 67 82 45 36 60 10
split_gain=1712.74 256.193 241.793 48.9047 45.8343 37.4578 18.8649 18.5465 16.7495 15.6066 13.8106 14.0159 13.5748 15.7616 15.283 13.1434 15.2412 17.5837 15.6243 14.9508
threshold=6.7500000000000009 13.500000000000002 3.5250000000000004 25.000000000000004 2.4750000000000005 4.8250000000000002 17.500000000000004 9.7500000000000018 1.4200000000000002 0.066312436576840009 -0.47744233378561696 0.14733204735333705 0.18834459459459454 0.12408446939320952 4.5000000000000009 0.074175824175823524 54.750000000000007 119456405.50000001 0.16247642991829003 31.500000000000004
decision_type=10 10 8 10 10 8 2 10 10 2 2 2 2 2 2 2 2 2 2 2
left_child=2 7 4 -3 8 15 10 -2 -1 -6 12 -12 -7 -14 -15 -4 19 -18 -19 -17
right_child=1 3 5 -5 9 6 -8 -9 -10 -11 11 -13 13 14 -16 16 17 18 -20 -21
leaf_value=0.2092231795104886 -0.0058709772312838812 -0.055781577104128038 0.028175764916934777 -0.088021549358195492 0.031882851335509992 0.054585800270162826 -0.065923152649341274 -0.028747988640410102 0.12232236376566444 0.088499991237352013 0.016566543424371381 0.061662626663026278 0.055382681882979748 0.15234613513661316 0.56121452135946071 0.20421228412410519 0.052218351113439948 0.33976704043227141 -0.0099339401258935287 0.082961113981257328
leaf_count=103 8872 12356 1372 14256 394 340 242 7785 2182 3520 6294 764 34 18 17 101 4198 34 16 529
internal_value=0 -0.480237 0.621094 -0.722681 1.01722 0.372944 0.219866 -0.161492 1.27439 0.829102 0.24748 0.214663 0.806025 2.05393 3.51055 0.534742 0.605405 0.542563 2.26746 1.02741
internal_count=63427 43269 20158 26612 6199 13959 7709 16657 2285 3914 7467 7058 409 69 35 6250 4878 4248 50 630
shrinkage=0.1


Tree=5
num_leaves=21
num_cat=0
split_feature=3 100 3 3 3 40 3 63 72 73 3 23 19 94 61 40 13 85 83 3
split_gain=1399.81 218.749 177.667 58.4358 30.5148 18.4974 17.1123 16.342 23.7606 16.1825 14.8879 14.7199 13.8645 13.5877 16.9769 15.706 18.2608 16.2679 14.3452 13.4219
threshold=7.7500000000000009 4.3750000000000009 19.500000000000004 2.4750000000000005 13.500000000000002 -0.38278388278388248 34.500000000000007 12.16666666666667 6.5000000000000009 2.9500000000000006 5.8750000000000009 0.034686489969100509 0.11447588749406652 0.11805555555555551 0.076586160628713526 -0.4999999999999995 0.033172228369830505 0.14280590284894404 0.054669987546699508 1.4750000000000003
decision_type=10 8 10 10 10 2 10 2 2 2 10 2 2 2 2 2 2 2 2 10
left_child=1 3 4 19 12 7 -4 10 -9 -7 -3 13 -2 -12 -15 16 18 -18 -16 -1
right_child=2 5 6 -5 -6 9 -8 8 -10 -11 11 -13 -14 14 15 -17 17 -19 -20 -21
leaf_value=0.16866062955425942 -0.023653516045337466 0.044669010817850179 -0.068474221814354558 0.06306974741437929 -0.048107288123511699 0.13301459394481635 -0.092433677100310946 0.011196064809478325 0.47543949870128649 0.0081766668507874223 0.014111630219246486 -0.0383713989359327 0.011721657043025991 -0.057959923165447957 0.22059856471408473 0.43003750000498853 0.28862066319805257 -0.0010057021665593328 -0.00029898854983997057 0.10214248263646629
leaf_count=141 12040 3361 9782 7279 7959 100 8871 23 19 7269 2122 451 1481 74 36 15 70 27 163 2144
internal_value=0 0.486462 -0.501028 0.762644 -0.292927 0.208136 -0.795762 0.328202 2.24025 0.099442 0.315511 0.145869 -0.197403 0.241144 0.790534 1.11589 0.95563 2.08109 0.401895 1.0727
internal_count=63427 23294 40133 9564 21480 13730 18653 6361 42 7369 6319 2958 13521 2507 385 311 296 97 199 2285
shrinkage=0.1


Tree=6
num_leaves=21
num_cat=0
split_feature=3 100 3 100 73 3 82 3 3 80 34 0 13 6 41 85 8 99 0 17
split_gain=1144.16 167.902 166.737 32.2793 29.1158 27.3583 19.4095 17.3249 16.6235 15.2159 14.9306 14.1014 17.2411 21.7273 13.0163 15.5919 14.9885 15.2999 14.8761 16.3566
threshold=7.7500000000000009 3.5250000000000004 19.500000000000004 4.8250000000000002 3.0500000000000003 12.500000000000002 0.28285714285714258 34.500000000000007 1.9250000000000003 6.5000000000000009 0.085144927536231527 77.350000000000009 0.034514427177495012 0.32019417475728157 0.15655637254901952 0.038155899302396011 -0.094494047619047492 16.850000000000005 17.950000000000003 0.34827280293318558
decision_type=10 8 10 8 2 10 2 10 10 2 2 2 2 2 2 2 2 2 2 2
left_child=1 4 5 -3 8 11 9 -4 -1 14 -11 -2 -13 -14 16 -16 17 18 19 -6
right_child=2 3 7 -5 6 -7 -8 -9 -10 10 -12 12 13 -15 15 -17 -18 -19 -20 -21
leaf_value=0.12290269282368074 -0.017449398746258591 0.03992630261767037 -0.065585590188409953 0.013399798577480039 0.17710881805892889 -0.042384600133813274 0.14368104606177007 -0.090560216170590138 0.081121968413353687 -0.021784939671660442 0.063501390883142064 -0.058761397209895719 0.38981440010715629 -0.021193347981850651 0.18791588649784996 0.035953604661657132 0.050762786490780344 0.074172268308463615 0.0035680111279917863 -0.046236103873408478
leaf_count=619 11706 6250 9782 10845 270 9688 153 8871 1929 290 232 36 29 21 45 1122 838 636 44 21
internal_value=0 0.423781 -0.472003 0.245282 0.744622 -0.270608 0.595635 -0.770246 0.931092 0.556026 0.161433 -0.162864 1.08336 2.23035 0.625335 0.417482 0.757663 0.964977 1.3985 1.60163
internal_count=63427 23294 40133 17095 6199 21480 3651 18653 2548 3498 522 11792 86 50 2976 1167 1809 971 335 291
shrinkage=0.1


Tree=7
num_leaves=21
num_cat=0
split_feature=3 100 3 3 3 3 60 63 25 40 8 0 3 61 36 19 59 33 68 41
split_gain=941.829 142.176 138.052 37.9593 19.9257 17.4923 12.8153 12.5276 13.2607 11.8735 12.9545 15.0902 11.8198 11.3753 21.7607 15.2908 11.8454 12.8264 11.6758 18.5674
threshold=8.2500000000000018 4.4750000000000005 19.500000000000004 2.5250000000000004 13.500000000000002 32.500000000000007 0.51190476190476164 12.16666666666667 0.04139971137518151 -0.85714285714285754 -0.19999999999999948 12.350000000000003 1.4200000000000002 0.16321160042964503 113979408.50000001 0.19826831439846657 0.06598590089156052 1655.0000000000002 -101.49999999999999 0.21320346320346303
decision_type=10 8 10 10 10 10 2 2 2 2 2 2 10 2 2 2 2 2 2 2
left_child=1 3 4 12 6 -4 -2 9 -9 10 11 -3 -1 -5 15 18 -16 -18 -15 -20
right_child=2 7 5 13 -6 -7 -8 8 -10 -11 -12 -13 -14 14 16 -17 17 -19 19 -21
leaf_value=0.14469063384222464 -0.01900370119416403 0.058271398324361401 -0.061392713126397151 0.041190908402028305 -0.042548693598816828 -0.087258070782290961 0.18810579355387655 0.059975764703453109 0.32136689620566261 0.0081562098722670878 0.0029420316925107652 -0.022422307562524245 0.074993594829529039 0.33402547170057723 0.26662845452541695 -0.038723463754803525 0.063253047705992729 -0.016908516068565901 0.095804816129878873 0.33525518118705439
leaf_count=103 11918 1468 8805 6470 7959 9848 31 76 22 11830 1006 248 2441 28 18 25 841 163 98 29
internal_value=0 0.353655 -0.466206 0.558809 -0.269931 -0.744394 -0.183524 0.133153 1.1942 0.125358 0.305647 0.465219 0.784962 0.455716 0.687912 1.52259 0.541033 0.504106 1.82402 1.48834
internal_count=63427 24866 38561 10216 19908 18653 11949 14650 98 14552 2722 1716 2544 7672 1202 180 1022 1004 155 127
shrinkage=0.1


Tree=8
num_leaves=21
num_cat=0
split_feature=3 100 3 73 100 40 3 75 61 99 29 40 40 68 63 68 9 85 36 25
split_gain=779.199 145.349 95.7961 32.8838 20.118 16.5521 16.2608 14.4203 14.1693 14.1248 12.3863 12.2841 11.3688 24.5708 15.2716 14.6152 13.4584 12.321 11.8394 11.2202
threshold=9.7500000000000018 4.4750000000000005 25.000000000000004 3.1500000000000008 6.7500000000000009 -0.37354651162790647 13.500000000000002 0.81666666666666665 0.066759517177344019 58.000000000000007 350.50000000000006 -0.99863013698630099 -0.50000000000000033 -147.99999999999997 0.3585714285714286 20.500000000000004 0.14107470912431105 0.095160031225604527 118328201.50000001 0.05576497472328551
decision_type=10 8 10 2 8 2 10 2 2 2 8 2 2 2 2 2 2 2 2 2
left_child=1 3 6 8 -3 7 9 12 11 -2 -10 -1 16 -14 -15 18 -5 -17 -16 -20
right_child=2 4 -4 5 -6 -7 -8 -9 10 -11 -12 -13 13 14 15 17 -18 -19 19 -21
leaf_value=0.16367074717120056 -0.02238804009794117 0.017322393076917301 -0.079144203480175201 0.046178174907050208 -0.0035866950308248769 0.023072811718592476 -0.043703813902622735 0.0031806443613339726 0.067792461295005033 0.33019793208612314 0.12084174754761463 -0.0077040707769927205 -0.047371252456350217 0.056968842950556091 0.26628683399180386 -0.12249104832988007 0.21675786615137468 0.11695720600304248 0.039346301302333977 0.27679989256639859
leaf_count=27 7770 9518 14256 3405 9296 2826 12356 413 2526 15 247 211 75 202 83 17 29 98 39 18
internal_value=0 0.273597 -0.496414 0.487442 0.0819948 0.38685 -0.34087 0.482716 0.682443 -0.217167 0.726498 0.118665 0.52939 0.875928 1.09755 1.50757 0.476554 0.830862 2.05142 1.172
internal_count=63427 29030 34397 10216 18814 7205 20141 4379 3011 7785 2773 238 3966 532 457 255 3434 115 140 57
shrinkage=0.1


Tree=9
num_leaves=21
num_cat=0
split_feature=3 100 3 3 3 73 3 10 9 9 10 57 57 90 0 64 61 40 60 64
split_gain=648.938 128.689 76.2676 33.0399 13.1508 14.4865 12.8904 11.3416 10.5861 17.6717 11.6298 22.1894 14.1891 13.8904 14.9721 13.4579 12.1106 12.0186 11.9459 13.0087
threshold=10.500000000000002 4.8250000000000002 25.000000000000004 2.9750000000000005 6.7500000000000009 17.500000000000004 1.7150000000000003 2.5000000000000004 0.11834733893557402 0.067117117117116515 65.500000000000014 0.4660633484162891 0.54356060606060563 0.28991596638655409 25.550000000000004 0.33463541666666657 0.14180898392652105 0.72821969696969668 0.14194139194139155 0.9985422740524782
decision_type=10 8 10 10 10 2 10 2 2 2 2 2 2 2 2 2 2 2 2 2
left_child=1 3 -2 6 5 -3 -1 -6 9 -5 11 13 -13 14 15 -10 -17 -14 19 -15
right_child=2 4 -4 8 7 -7 -8 -9 10 -11 -12 12 17 18 -16 16 -18 -19 -20 -21
leaf_value=0.089068404257733533 -0.034427283912984934 0.014395436600483381 -0.076764485820806361 0.031084157086031718 0.2289922172753277 -0.065366716000104838 0.051122569738514714 -0.005649662018621996 0.11532953729034628 -0.013591680699639001 -0.024749910565181679 0.26945586454630477 0.19375687592649402 0.11640261362602256 0.25070269232820286 -0.041925735712063809 0.10573654163167896 -0.12140326858087536 0.00080359129004956486 0.44474353104580056
leaf_count=435 18043 7467 14256 7284 25 242 3471 10945 75 692 87 58 18 19 21 194 47 15 17 16
internal_value=0 0.226147 -0.499278 0.400094 0.029724 0.121435 0.561945 -0.0513376 0.297898 0.273022 0.645459 0.804713 1.93903 0.522853 0.328748 0.18646 -0.120515 0.579449 1.81015 2.72022
internal_count=63427 31128 32299 12449 18679 7709 3906 10970 8543 7976 567 480 91 389 337 316 241 33 52 35
shrinkage=0.1


Tree=10
num_leaves=21
num_cat=0
split_feature=3 100 3 73 82 3 40 95 84 57 56 84 88 64 28 71 6 45 6 60
split_gain=542.01 100.565 72.2734 28.59 15.9406 13.1149 12.0641 15.0539 12.298 15.3966 12.1016 15.9756 17.365 11.6131 11.5451 14.0046 19.5143 11.4978 11.3269 11.2695
threshold=10.500000000000002 4.8250000000000002 25.000000000000004 3.1500000000000008 0.31414473684210503 1.4200000000000002 0.11111111111111152 0.61250000000000016 0.15564663023679354 0.43875000000000003 0.58333333333333315 0.22140522875816956 6.5000000000000009 3.1714441219158203 0.23730151765065455 622910.00000000012 0.26726190476190409 60.250000000000007 0.23132664437012204 0.16247642991829003
decision_type=10 8 10 2 2 10 2 2 2 2 2 2 2 2 2 2 2 2 2 2
left_child=1 3 -2 5 6 -1 10 14 -9 -10 -5 12 18 17 15 -8 -17 -7 -12 -3
right_child=2 19 -4 4 -6 13 7 8 9 -11 11 -13 -14 -15 -16 16 -18 -19 -20 -21
leaf_value=0.12844851273218483 -0.031969587505159665 -0.0017380374672649459 -0.07433340140312937 0.029265347650686464 0.083251503142961564 0.057269329369568238 0.0043592305460048398 0.024413095122741996 0.080602659512841457 0.36514808042833913 0.10879594415093925 -0.015260850189288244 0.068100003504719772 -0.016239078258897813 -0.092352477794552412 0.40192673599040507 0.038967778699793773 -0.0017306116576791661 0.39210034031212282 0.017113832735337047
leaf_count=91 18043 14370 14256 6630 296 2654 2067 71 35 22 15 46 49 129 80 15 36 189 24 4309
internal_value=0 0.200787 -0.470911 0.352305 0.275294 0.534484 0.255321 0.0898481 0.973116 1.89789 0.308046 1.05776 1.68338 0.505603 0.0388397 0.076817 1.46385 0.535422 2.92894 0.0266052
internal_count=63427 31128 32299 12449 9386 3063 9090 2326 128 57 6764 134 88 2972 2198 2118 51 2843 39 18679
shrinkage=0.1


Tree=11
num_leaves=21
num_cat=0
split_feature=3 100 3 73 25 3 40 52 36 83 4 25 25 64 64 22 2 47 78 71
split_gain=452.518 80.5274 68.0526 26.9003 11.633 11.2666 11.1885 12.6391 13.4101 16.568 10.7439 10.6256 10.3343 15.7631 14.2743 12.8409 12.7579 10.315 12.1673 17.9854
threshold=10.500000000000002 5.3750000000000009 25.000000000000004 3.1500000000000008 0.21183306539271904 1.4200000000000002 -0.37354651162790647 2.2500000000000004 117437002.50000001 0.15301786436954304 0.11805555555555551 0.11111177296302352 0.068263275418205024 0.37553418803418809 3.5255754475703327 0.32709870925577605 1.5000000000000002 0.90000000000000013 22.350000000000005 92854.000000000015
decision_type=10 8 10 2 2 10 2 2 2 2 2 2 2 2 2 2 2 2 2 2
left_child=1 3 -2 5 -4 -1 11 -8 9 10 -9 17 13 -7 15 -14 -17 -5 19 -19
right_child=2 -3 4 6 -6 12 7 8 -10 -11 -12 -13 14 -15 -16 16 -18 18 -20 -21
leaf_value=0.11770592839481001 -0.029625320034292982 0.00029122700299248795 -0.072326247815632558 0.023298520296762153 0.34580625963726702 0.017728240561505872 0.0098452883601714402 0.25624627864453703 0.035260148884968499 0.37432230022356083 -0.007275001624295026 0.055145209978197329 0.02764921843960895 0.06938298422694858 -0.087407003504083355 0.2380046382975082 0.066078349093258285 0.1921287671869828 0.0068085314573595804 0.010895027902666332
leaf_count=91 18043 16712 14240 5351 16 416 4564 18 216 20 31 865 1158 1256 52 25 100 93 100 60
internal_value=0 0.178572 -0.443115 0.297668 -0.718503 0.47536 0.231674 0.132614 0.678302 1.70906 0.85985 0.299197 0.449515 0.570281 0.306696 0.350733 1.00428 0.25685 0.764338 1.22118
internal_count=63427 31128 32299 14416 14256 3098 11318 4849 285 69 49 6469 3007 1672 1335 1283 125 5604 253 153
shrinkage=0.1


Tree=12
num_leaves=21
num_cat=0
split_feature=3 100 3 3 73 87 33 66 85 84 91 2 61 60 99 9 68 75 6 60
split_gain=380.403 91.992 39.7311 25.5247 13.935 14.4834 13.3648 12.4474 14.0973 12.3887 11.7377 12.3112 11.1128 10.8631 13.3252 10.6646 10.6161 12.5057 17.7472 13.1583
threshold=13.500000000000002 5.8750000000000009 32.500000000000007 3.1750000000000003 24.000000000000004 0.85766233766233768 2046.5000000000002 1.0000000180025095e-35 0.12247170583155252 0.4749373433583956 0.30495169082125556 6.5000000000000009 0.076586160628713526 0.37048503611971056 19.23263270942007 0.05634920634920601 -38.999999999999993 0.07019704433497502 0.14208074534161405 0.068337484433374521
decision_type=10 8 10 10 2 2 2 2 2 2 2 2 2 2 2 2 2 2 2 2
left_child=1 3 -2 6 5 7 -1 8 10 -10 11 -3 -7 -9 -15 -8 17 19 -19 -14
right_child=2 4 -4 -5 -6 12 15 13 9 -11 -12 -13 16 14 -16 -17 -18 18 -20 -21
leaf_value=0.04146246557803978 -0.038216452849394192 0.0080277192486032014 -0.077389210331841998 0.017481178963577964 -0.055068793945472552 -0.040013581964853495 -0.019403830183949249 -0.011649099142559703 0.033148110147529108 0.30569726610490822 0.0295410594089438 -0.034142849678659881 0.073656577286313279 -0.001551699436482438 0.41586813994318406 0.10746723501511841 -0.015882238847386581 0.29192482972710987 0.03248409113837409 -0.041090389339790409
leaf_count=4328 16764 2245 9848 11692 685 1593 293 4185 2296 20 1410 1332 149 19 15 37 4968 31 930 587
internal_value=0 0.130995 -0.500428 0.251988 -0.0469885 -0.0309854 0.382043 0.0482634 0.134719 0.354695 0.0301985 -0.0762806 -0.140062 -0.100096 1.75426 -0.0510689 -0.0794591 0.154468 0.410882 -0.18222
internal_count=63427 36815 26612 16350 20465 19780 4658 11522 7303 2316 4987 3577 8258 4219 34 330 6665 1697 961 736
shrinkage=0.1


Tree=13
num_leaves=21
num_cat=0
split_feature=3 100 3 3 40 8 29 66 73 60 67 25 59 8 72 59 10 22 91 75
split_gain=320.425 73.3952 37.9388 22.8077 14.1573 12.5183 12.3031 13.8797 13.5342 11.1383 10.7278 11.4472 10.4308 17.0819 15.9602 16.8037 10.3379 23.0646 24.6012 20.6452
threshold=13.500000000000002 5.8750000000000009 32.500000000000007 2.0250000000000004 -0.34066731141199152 -0.061862244897958996 167.50000000000003 1.0000000180025095e-35 24.000000000000004 0.64102564102564064 1.0000000180025095e-35 0.31703180036179607 0.17174815641073254 -0.070925553319918996 1.5000000000000002 0.21076774505069953 71.500000000000014 0.0059518359306255011 0.14495798319327655 0.63961038961038919
decision_type=10 8 10 10 2 2 8 2 2 2 2 2 2 2 2 2 2 2 2 2
left_child=1 3 10 -1 5 -5 7 8 9 -3 -2 16 -8 14 15 -14 -12 -18 -19 -20
right_child=2 6 -4 4 -6 -7 12 -9 -10 -11 11 -13 13 -15 -16 -17 17 18 19 -21
leaf_value=0.051455081600543177 -0.053552652853376917 0.010449676994968871 -0.075105713852853598 0.023567399135761835 0.010584364439890867 0.061849742435438088 -0.026984305451782445 -0.012045377381616137 -0.05810456248562304 0.28129077565773758 -0.032139717957573442 0.32092896972742113 0.11766488784967773 -0.033832052537651452 0.052164248596664659 0.5691917405014717 -0.031724217034591433 0.63797613465040803 0.051445093165772532 0.55326081023747797
leaf_count=1042 4897 9125 9848 7715 7047 546 3811 6637 396 15 11208 17 26 258 182 15 443 19 163 17
internal_value=0 0.1169 -0.472551 0.223783 0.193322 0.262753 -0.0428825 0.000380522 0.0845384 0.109813 -0.356535 -0.284228 -0.207974 0.26339 0.947468 2.87742 -0.289778 0.264897 1.51125 1.01196
internal_count=63427 36815 26612 16350 15308 8261 20465 16173 9536 9140 16764 11867 4292 481 223 41 11850 642 199 180
shrinkage=0.1


Tree=14
num_leaves=21
num_cat=0
split_feature=3 100 3 73 40 87 19 0 45 3 25 76 8 67 90 92 7 73 0 2
split_gain=269.96 58.6408 36.2063 20.0092 11.8153 11.3093 10.5805 10.1862 10.1585 10.8633 10.1552 9.83491 9.77631 9.38317 9.30511 15.1236 11.7987 9.03092 8.79216 15.8927
threshold=13.500000000000002 5.8750000000000009 34.500000000000007 3.1500000000000008 -0.34066731141199152 0.85766233766233768 0.034334550996624011 2.8500000000000001 61.250000000000007 1.3650000000000002 0.31703180036179607 0.4852941176470586 -0.67626346313173136 1.0000000180025095e-35 0.21825396825396806 0.10762548262548252 0.071946169772256527 7.2500000000000009 13.050000000000002 12.500000000000002
decision_type=10 8 10 2 2 2 2 2 2 10 2 2 2 2 2 2 2 2 2 2
left_child=1 3 10 8 12 6 14 -7 9 -1 13 -11 -5 -2 18 -16 -17 -4 -3 -20
right_child=2 5 17 4 -6 7 -8 -9 -10 11 -12 -13 -14 -15 15 16 -18 -19 19 -21
leaf_value=0.12335942720546307 -0.051211471786093365 -0.012082776003501843 0.25119635674424451 -0.051526568765846249 0.0054487056773932204 -0.032804404263262359 0.017337634188671864 -0.0061099384983813974 -0.03611848764051994 0.041867753103613001 0.22640692445093916 0.01070222074203119 0.022431283897011853 -0.027760021343933391 0.33859605880737875 0.30658440005956183 0.017195220719522369 -0.076039520786959511 0.018160995844318094 0.27068766465011468
leaf_count=62 5243 6723 26 114 5746 2401 3831 6070 102 2354 22 605 7367 12476 19 18 777 8845 594 32
internal_value=0 0.104469 -0.445453 0.199082 0.148701 -0.039003 0.0292024 -0.135589 0.351646 0.373697 -0.340074 0.353544 0.212784 -0.344736 -0.0437326 0.307038 0.234736 -0.750807 -0.0834343 0.308286
internal_count=63427 36815 26612 16350 13227 20465 11994 8471 3123 3021 17741 2959 7481 17719 8163 814 795 8871 7349 626
shrinkage=0.1


Tree=15
num_leaves=21
num_cat=0
split_feature=3 3 3 73 8 3 68 57 87 33 40 85 9 87 85 41 59 63 29 75
split_gain=226.907 48.5187 34.2203 20.1428 12.0376 11.6519 11.0524 14.071 10.3488 11.1617 14.1193 11.7503 15.7754 11.7474 13.3363 9.57711 12.6786 15.9526 14.4974 13.4903
threshold=13.500000000000002 6.7500000000000009 34.500000000000007 3.1500000000000008 -0.35198226395409443 1.4200000000000002 -600.49999999999989 0.43875000000000003 1.1430749128919857 1075.0000000000002 -0.84615384615384548 0.13640077243018403 -0.25782013685239447 1.1794382462321391 0.19235337109446354 0.32071428571428556 0.15667146196727152 1.2989361702127662 10.500000000000002 0.39565217391304358
decision_type=10 10 10 2 2 10 2 2 2 2 2 2 2 2 2 2 2 2 8 2
left_child=1 3 -2 5 8 -1 7 -6 -5 -10 13 -12 -13 -11 -15 -8 18 -18 -17 -19
right_child=2 -3 -4 4 6 -7 15 -9 9 10 11 12 -14 14 -16 16 17 19 -20 -21
leaf_value=0.10140328921511273 -0.031620348521594253 -0.0067123849951143226 -0.072768938749517273 0.019291812789445601 0.032841743362396383 0.029238900158796845 0.0070773329312315281 0.24807701432408391 -0.032758752863573611 0.2235147998874458 0.22245600434648646 0.23324740602372521 0.0047549541447140685 0.013942693464631948 0.19637814332107351 0.19478040963490009 0.042932696993305298 0.31387267041531453 0.0059978755891514357 0.016577282501880741
leaf_count=117 17741 16657 8871 1683 81 3057 14031 30 69 21 63 32 59 279 25 31 93 38 433 16
internal_value=0 0.0934521 -0.418705 0.163095 0.120072 0.317807 0.0911834 0.95433 0.296061 0.596594 0.738176 1.37902 0.786943 0.440326 0.310719 0.0848876 0.420939 1.11019 0.194923 2.27599
internal_count=63427 36815 26612 20158 16984 3174 14753 111 2231 548 479 154 91 325 304 14642 611 147 464 54
shrinkage=0.1


Tree=16
num_leaves=21
num_cat=0
split_feature=3 100 3 3 3 0 3 13 3 6 14 16 98 19 41 82 36 33 8 44
split_gain=190.421 37.0264 36.9022 11.4186 10.7987 10.6176 11.8411 15.38 10.5934 10.2278 9.44036 15.0836 14.2635 15.0272 10.9179 15.2173 9.43388 9.38951 15.5363 13.2728
threshold=12.500000000000002 4.3750000000000009 25.000000000000004 7.7500000000000009 56.000000000000007 77.350000000000009 9.2500000000000018 0.083722426888185028 2.0250000000000004 0.21020142949967455 0.23113335367583757 0.25041753222336655 0.10555555555555553 0.33661381169377708 0.13976744186046505 0.078461538461538013 119074905.50000001 1505.0000000000002 0.38618524332810006 0.6547619047619041
decision_type=10 8 10 10 10 2 10 2 10 2 2 2 2 2 2 2 2 2 2 2
left_child=1 8 -2 10 -4 -5 -7 9 -1 -8 11 17 13 -13 -12 -16 -17 -3 19 -19
right_child=2 3 4 5 -6 6 7 -9 -10 -11 14 12 -14 -15 15 16 -18 18 -20 -21
leaf_value=0.039178603360360303 -0.022848901545469757 0.0016583583041192029 -0.049786700996961419 -0.0090507496641096911 -0.084575062956640801 -0.053728141675078146 0.22334714155416102 0.37723216228522194 0.016867344457084838 -0.11306125813474165 -0.080906562490724421 0.41647207274195452 -0.0046853685941983525 0.045142281582867247 0.23241260047334458 -0.052969215412417892 0.18129465285545807 0.014512015016136331 0.17598436624977193 0.15288366738601106
leaf_count=1042 14085 9318 9849 11706 4407 32 16 19 8522 19 230 23 31 16 24 98 16 3854 60 60
internal_value=0 0.0898414 -0.368331 0.0103008 -0.597014 -0.079384 0.98116 1.81591 0.19961 0.511791 0.0620789 0.0751972 1.43728 2.62572 -0.39954 0.219341 -0.202124 0.0678917 0.189265 0.167184
internal_count=63427 35086 28341 25522 14256 11792 86 54 9564 35 13730 13362 70 39 368 138 114 13292 3974 3914
shrinkage=0.1


Tree=17
num_leaves=21
num_cat=0
split_feature=3 3 73 3 67 63 59 58 71 29 84 34 57 0 40 29 52 8 5 43
split_gain=161.327 50.6435 16.1425 16.1061 10.849 14.5317 18.4335 23.8478 17.778 27.8114 29.1255 16.1319 13.4002 25.2431 10.5127 9.87993 11.2654 11.8827 25.4445 13.2212
threshold=19.500000000000004 7.7500000000000009 2.9500000000000006 56.000000000000007 6.5000000000000009 0.58257575757575719 0.26546556122448955 0.21240601503759354 602.50000000000011 16.500000000000004 0.082521517071786024 0.88194444444444409 0.4660633484162891 4.6500000000000012 -0.34066731141199152 165.50000000000003 2.2500000000000004 -0.061862244897958996 0.3166666666666666 0.23354978354978304
decision_type=10 10 2 10 2 2 2 2 2 8 2 2 2 2 2 10 2 2 2 2
left_child=1 2 -1 4 -2 6 -6 -8 9 10 -7 12 -10 -14 -4 -3 -17 -18 19 -19
right_child=3 15 14 -5 5 8 7 -9 11 -11 -12 -13 13 -15 -16 16 17 18 -20 -21
leaf_value=0.027857621213510653 -0.049163644470923168 -0.0076069660871072491 0.014498827582482094 -0.082799585127751429 -0.043065321053808434 0.23435883585933615 0.86085526590081818 -0.10383508275002214 -0.0096213114018361395 -0.033506135343800376 1.1583084068202969 0.42655191636582956 0.71867638714286586 -0.10412434845373425 0.0022033013435113834 -0.042473393705242037 -0.032046986722375152 0.26101300949343692 0.53498252616932773 -0.10712893859196929
leaf_count=2533 11072 19063 10777 4407 2212 26 15 15 780 42 15 27 21 21 9984 2223 104 27 22 41
internal_value=0 0.0544159 0.12093 -0.491167 -0.412987 -0.135106 -0.373563 3.83842 0.4214 2.8018 5.89754 0.194029 0.0618827 2.98056 0.0904731 -0.105539 -0.345349 0.582172 1.67353 0.405995
internal_count=63427 44774 23294 18653 14246 3174 2242 30 932 83 41 849 822 42 20761 21480 2417 194 90 68
shrinkage=0.1


Tree=18
num_leaves=21
num_cat=0
split_feature=3 3 3 100 80 78 10 44 63 60 68 80 60 78 61 83 72 41 73 59
split_gain=137.717 41.2009 15.4319 13.0001 10.8584 9.67739 14.3361 16.0348 11.6843 10.5335 12.0656 8.79164 23.3656 9.7289 37.0062 13.7855 20.6983 10.9173 10.5513 9.17356
threshold=19.500000000000004 7.2500000000000009 56.000000000000007 3.4250000000000003 6.5000000000000009 29.250000000000004 81.500000000000014 0.17684288905435555 6.916666666666667 0.15643825301204803 682.00000000000011 4.7103406687813907 0.15821566110397903 13.65 0.069017293155224022 0.10817776539426002 6.5000000000000009 0.37406716417910457 9.2500000000000018 0.23548145372798754
decision_type=10 10 10 8 2 2 2 2 2 2 2 2 2 2 2 2 2 2 2 2
left_child=1 3 5 4 -1 9 8 -8 -7 -2 11 19 -13 14 -14 -16 -17 18 -15 -11
right_child=2 -3 -4 -5 -6 6 7 -9 -10 10 -12 12 13 17 15 16 -18 -19 -20 -21
leaf_value=0.023169898714732084 -0.050120668969563256 -0.0086606677926183828 -0.080949454613802707 0.0063934268707396243 -0.0051187761382499005 -0.0097517062969300176 0.58847191505158336 -0.1041224086452183 0.46334089172824178 -0.049363577216694703 0.36617291323475887 0.6061621241510573 0.87544378622239527 0.37680420206164117 -0.10362896011881842 0.72566777569905128 -0.1039535271729803 0.41476112951927374 -0.042375331956580081 0.10291663555994579
leaf_count=5053 10909 23021 4407 15931 769 1144 24 15 17 1347 24 21 19 16 74 15 17 19 473 112
internal_value=0 0.0487825 -0.465248 0.112616 0.195041 -0.388643 0.0808417 3.21236 -0.0329927 -0.431706 -0.0860334 -0.129896 0.391613 0.207329 1.57066 0.34866 3.11156 -0.122165 -0.268756 -0.362268
internal_count=63427 44774 18653 21753 5822 14246 1200 39 1161 13046 2137 2113 654 633 125 106 32 508 489 1459
shrinkage=0.1


Tree=19
num_leaves=21
num_cat=0
split_feature=3 100 3 73 9 66 92 41 36 41 23 29 63 9 13 59 78 46 43 65
split_gain=117.496 26.4064 19.9705 10.9961 11.5152 11.4908 12.3973 13.4627 15.4532 13.5057 10.9342 10.8851 17.7083 18.866 10.6349 18.4013 10.1536 23.2026 18.5636 18.5431
threshold=16.500000000000004 5.3750000000000009 34.500000000000007 24.000000000000004 0.41779279279279208 1.0000000180025095e-35 0.44949494949494911 0.37406716417910457 117462905.00000001 0.19399641577060903 0.035190938615227006 215.50000000000003 5.3818181818181827 -1.0000000180025095e-35 0.16163214686162405 0.09441390580894303 25.350000000000005 0.91666666666666663 0.082482993197278517 0.37500000000000006
decision_type=10 8 10 2 2 2 2 2 2 2 2 8 2 2 2 2 2 2 2 2
left_child=1 -1 -2 4 5 11 -7 9 -9 16 -5 -3 -13 -14 -4 -16 -8 18 19 -18
right_child=2 3 14 10 -6 6 7 8 -10 -11 -12 12 13 -15 15 -17 17 -19 -20 -21
leaf_value=0.012294051687610288 -0.027313583375751328 0.0096391837182696581 -0.065757926727888369 -0.047199751663396905 -0.084802420820344726 -0.015015379535075011 0.012040554880130878 0.44164362436455806 0.030587629533820646 -0.056599044561322837 0.28153630074409824 -0.01773148200032092 0.4225654258572738 0.030139418478647591 -0.10267912716960843 0.54912564204381464 0.46824230430617064 0.50444399554649877 0.021031092728065675 0.013889596845605246
leaf_count=14416 13463 12401 8802 1077 234 8633 595 18 23 234 16 3132 20 47 40 29 24 15 190 18
internal_value=0 0.0524705 -0.376998 -0.0290817 -0.0159694 -0.00925539 -0.103823 0.235287 2.10047 0.159188 -0.422809 0.0501684 -0.137363 1.64768 -0.636987 1.80939 0.363554 0.950925 0.678605 2.70982
internal_count=63427 41093 22334 26677 25584 25350 9750 1117 41 1076 1093 15600 3199 67 8871 69 842 247 232 42
shrinkage=0.1


Tree=20
num_leaves=21
num_cat=0
split_feature=3 3 3 100 67 63 88 74 61 2 4 63 67 43 59 58 36 87 77 40
split_gain=100.529 28.8622 14.3568 11.8304 9.84621 11.7995 20.2766 12.541 11.2591 11.6125 11.2373 9.6903 21.4503 9.90368 9.03309 11.9064 13.9856 10.7828 11.6577 11.1641
threshold=19.500000000000004 8.2500000000000018 56.000000000000007 2.4750000000000005 6.5000000000000009 0.48566748566748508 21.500000000000004 1.0000000180025095e-35 0.15799875182026155 13.500000000000002 0.19090909090909056 4.5277777777777786 8.5000000000000018 0.048199767711962514 0.092653912190335516 0.27636363636363609 118382806.50000001 0.81209415584415567 15.500000000000002 0.49999999999999961
decision_type=10 10 10 8 2 2 2 2 2 2 2 2 2 2 2 2 2 2 2 2
left_child=1 3 4 -1 -2 -6 7 -7 9 11 -10 -9 13 -13 15 -5 -17 18 -16 -19
right_child=2 -3 -4 14 5 6 -8 8 10 -11 -12 12 -14 -15 17 16 -18 19 -20 -21
leaf_value=0.022298773678659161 -0.042200377377281606 -0.0092154863196820865 -0.077382532715765007 -0.0018753313007270859 -0.031610631452497102 0.37085461596620961 0.65585579467594757 -0.020089358538156511 0.021959074837107042 0.3760257425745322 0.56287833602346149 0.36022651937922201 0.68762188618987519 -0.1040186463283026 0.016728667741385539 -0.014620089070943027 0.37530575524061138 0.0086546686308504959 0.10418979342944908 -0.016593843283837
leaf_count=2285 11072 19908 4407 8315 2161 28 15 828 21 23 18 15 17 48 6550 15 16 5844 122 1719
internal_value=0 0.0395115 -0.415593 0.0853812 -0.341408 -0.0684386 0.398552 0.305451 0.199643 0.0735623 2.84335 -0.0241338 1.72129 0.280604 0.0611238 -0.0125667 1.78313 0.101807 0.182456 0.032935
internal_count=63427 44774 18653 24866 14246 3174 1013 998 970 931 39 908 80 63 22581 8346 31 14235 6672 7563
shrinkage=0.1


Tree=21
num_leaves=21
num_cat=0
split_feature=3 3 3 100 61 73 78 91 6 88 63 6 99 71 83 60 13 33 10 99
split_gain=85.223 23.3565 13.5341 10.3228 9.72206 9.61437 8.91487 13.4653 24.6544 17.9868 10.28 16.507 21.15 25.9423 12.7278 9.45423 8.75959 10.7974 9.45786 12.6284
threshold=19.500000000000004 8.2500000000000018 56.000000000000007 1.8250000000000004 0.028708298277845008 8.2500000000000018 29.250000000000004 0.48462255358807055 0.21020142949967455 6.5000000000000009 1.3207142857142857 0.25500200080031959 19.73263270942007 77171.500000000015 0.073252032520325014 0.15643825301204803 0.089280208661639521 3370.0000000000005 56.500000000000007 36.100000000000009
decision_type=10 10 10 8 2 2 2 2 2 2 2 2 2 2 2 2 2 2 2 2
left_child=1 3 6 -1 -5 -4 15 10 -9 -10 -8 12 13 14 -12 -2 17 -3 -18 -20
right_child=2 16 5 4 -6 -7 7 8 9 -11 11 -13 -14 -15 -16 -17 18 -19 19 -21
leaf_value=0.03365896965462354 -0.043453794372821548 -0.011892219633095107 0.42913754975972318 -0.020763441208052413 0.0075749101571599992 -0.077522829629565859 -0.03000289115740077 0.81966709933062232 0.47834921164276728 -0.059436463459810962 0.51391490972906795 -0.10385580543022782 -0.10376792866645966 0.93882692526380385 -0.011292629518289661 -0.0027469393614121583 0.04155572170334524 0.23776269026336549 -0.018583738483680102 0.16275797565458075
leaf_count=609 10909 17647 16 987 23270 4391 918 16 24 70 23 66 36 17 30 2137 1048 27 1125 61
internal_value=0 0.0354595 -0.3908 0.0764621 0.0653089 -0.753081 -0.318962 0.142776 1.9666 0.885266 -0.050804 1.14548 2.41686 4.04625 2.14421 -0.363451 -0.0836358 -0.114902 0.145069 -0.0922662
internal_count=63427 44774 18653 24866 24257 4407 14246 1200 110 94 1090 172 106 70 53 13046 19908 17674 2234 1186
shrinkage=0.1


Tree=22
num_leaves=21
num_cat=0
split_feature=3 100 3 29 73 64 10 66 19 75 88 41 67 29 2 93 58 64 88 43
split_gain=72.3005 19.3823 12.6721 9.353 10.9306 10.4375 9.38713 17.5169 10.228 12.5116 12.4622 9.05543 8.95264 13.4708 16.7715 14.0113 30.6133 26.5366 23.2563 16.833
threshold=19.500000000000004 4.1250000000000009 56.000000000000007 219.50000000000003 8.7500000000000018 1.2004016064257026 23.500000000000004 0.37500000000000006 0.024917262674975505 0.32200460829493055 8.5000000000000018 0.44590643274853758 5.5000000000000009 20.500000000000004 5.5000000000000009 5.5000000000000009 0.078461538461538013 1.2377976190476188 8.5000000000000018 0.15319426336375405
decision_type=10 8 10 10 2 2 2 2 2 2 2 2 2 8 2 2 2 2 2 2
left_child=1 -1 12 -3 5 6 7 8 9 -5 -11 -6 -2 14 15 19 -17 18 -18 -14
right_child=2 3 -4 4 11 -7 -8 -9 -10 10 -12 -13 13 -15 -16 16 17 -19 -20 -21
leaf_value=0.011803277651485353 -0.039869857462534519 -0.00017526299380421294 -0.07317653265720607 0.0076803854537716154 -0.053051035898879266 -0.066284264194610878 -0.0087744823549836815 0.28466923507438979 -0.094211180718205181 0.37441295632591731 0.075756565356300931 0.22197329985502656 0.14762318088683135 -0.037113362039781495 -0.023599995652668449 -0.10368094204701482 0.40133559509570854 -0.10361674809737693 1.2272082696527147 -0.014400654153953949
leaf_count=8647 9802 33932 4407 112 1309 177 438 31 46 23 39 20 342 2513 1029 41 21 15 19 464
internal_value=0 0.0318245 -0.367094 -0.01514 -0.240582 0.00971555 0.188002 0.682763 0.354021 0.72317 1.88659 -0.491978 -0.297868 -0.0874098 0.260027 0.81044 2.81699 5.37245 7.58783 0.570634
internal_count=63427 44774 18653 36127 2195 866 689 251 220 174 62 1329 14246 4444 1931 902 96 55 40 806
shrinkage=0.1


Tree=23
num_leaves=21
num_cat=0
split_feature=3 3 3 60 89 11 47 78 59 51 33 8 85 81 71 57 87 5 84 14
split_gain=61.2305 17.0577 11.767 8.44244 20.743 16.532 15.6901 11.4533 11.3434 13.0096 8.87956 12.4938 17.4654 25.4334 28.2857 12.4383 12.1114 9.87991 9.92936 8.14518
threshold=19.500000000000004 8.2500000000000018 56.000000000000007 0.24828767123287654 0.31909090909090904 0.14591905514720754 0.38750000000000007 28.550000000000004 0.17251642036124754 61.500000000000007 1211.5000000000002 -0.070925553319918996 0.11998421468034702 0.39565217391304358 75042.500000000015 0.31909090909090904 0.85647943387881476 0.23611111111111102 0.075974025974025514 0.23383445644019504
decision_type=10 10 10 2 2 2 2 2 2 2 2 2 2 2 2 2 2 2 2 2
left_child=1 19 -2 -3 10 6 7 8 9 -6 11 12 17 14 -14 16 -13 -5 -19 -1
right_child=2 3 -4 4 5 -7 -8 -9 -10 -11 -12 15 13 -15 -16 -17 -18 18 -20 -21
leaf_value=0.0071508483603060259 -0.027780559867088175 -0.0094659384291551334 -0.070943532194169184 -0.084863673870201828 -0.048452755350976456 0.44342232012792543 0.38571662906376858 0.34667212096097666 -0.10789799194893018 0.35645928352846856 -0.030364461181538197 -0.016219076002469662 0.71221379449668887 0.04038560004023134 0.10549005624168213 -0.075572666101718033 0.48855743351035791 0.41756271568658598 -0.020065404379287236 -0.021329052255650141
leaf_count=24175 14246 18800 4407 72 26 22 22 16 65 22 548 18 24 47 21 157 15 15 18 691
internal_value=0 0.0285224 -0.344149 -0.0739102 0.261284 1.47773 0.999806 0.454622 0.00506772 1.42684 0.0202993 0.484415 1.15663 2.32531 4.38437 -0.281148 2.02789 0.000550873 1.79089 0.0632766
internal_count=63427 44774 18653 19908 1108 173 151 129 113 48 935 387 197 92 45 190 33 105 33 24866
shrinkage=0.1


Tree=24
num_leaves=21
num_cat=0
split_feature=3 3 2 0 7 60 9 90 59 61 17 68 64 78 51 19 44 34 25 78
split_gain=52.3691 19.0352 9.27413 12.75 10.9236 10.5491 16.0168 9.13714 22.3072 28.2829 16.9984 11.5422 21.6672 9.42688 8.85967 10.1008 10.5364 19.1707 17.8389 15.3449
threshold=25.000000000000004 9.7500000000000018 6.5000000000000009 98.800000000000011 0.22611077297626256 0.37048503611971056 -0.070925553319918996 0.37980769230769207 0.17787193973634605 0.13774351089361606 0.076175249487963517 199.00000000000003 1.5956843940714907 26.850000000000005 24.500000000000004 0.0026269425563295004 0.081356867071152514 0.42206477732793507 0.0023699026118485004 20.350000000000005
decision_type=10 10 2 2 2 2 2 2 2 2 2 2 2 2 2 2 2 2 2 2
left_child=1 -1 4 -4 5 -3 -7 14 10 -10 11 -9 13 -13 15 -2 -17 19 -19 -18
right_child=7 2 3 -5 -6 6 -8 8 9 -11 -12 12 -14 -15 -16 16 17 18 -20 -21
leaf_value=0.0051468277885696259 -0.024473508526361036 0.0037960667123303465 -0.022239367627179381 0.20546535988072101 -0.026703036973147427 0.3904434352285186 0.016184248269054544 -0.078207085369682752 -0.10298719514472232 0.96897657391846814 0.64155531852707748 -0.10240896142174899 0.66195022782648072 0.46948624459139343 -0.049037787943016407 -0.055202378749818974 0.72754048118238057 1.1229184239461316 0.16546810339151025 0.036065089180045848
leaf_count=29030 781 8885 8595 28 2555 22 56 361 17 17 17 75 22 15 12703 90 15 15 15 113
internal_value=0 0.0193775 -0.100238 -0.209745 -0.0195026 0.0535842 1.502 -0.40539 0.44029 4.96982 0.0388428 -0.19771 1.62008 -0.0195176 -0.440436 0.158831 1.25791 2.20974 6.65893 1.13473
internal_count=63427 49171 20141 8623 11518 8963 78 14256 524 34 490 473 112 90 13732 1029 248 158 30 128
shrinkage=0.1


Tree=25
num_leaves=21
num_cat=0
split_feature=3 3 25 3 61 29 60 40 83 16 64 47 51 84 67 44 99 13 41 36
split_gain=44.9517 15.5668 9.01558 8.9322 8.04518 14.3293 13.0082 11.761 14.2563 14.648 16.9688 13.4509 10.5547 16.4255 13.6283 11.9658 10.5687 10.9908 10.0034 9.62876
threshold=25.000000000000004 6.7500000000000009 0.21183306539271904 23.500000000000004 0.16433232636300604 128.50000000000003 0.25211864406779655 -0.87499999999999944 0.11846978557504802 0.0057586956365545013 0.47958333333333308 0.63333333333333319 55.500000000000007 0.082521517071786024 3.5000000000000004 0.028991596638655005 19.73263270942007 0.14265814404998603 0.37406716417910457 113725208.50000001
decision_type=10 10 2 8 2 8 2 2 2 2 2 2 2 2 2 2 2 2 2 2
left_child=1 4 -2 -3 7 -6 -7 8 9 11 -11 18 14 -14 15 -12 17 -15 -1 -10
right_child=2 3 -4 -5 5 6 -8 -9 19 10 12 -13 13 16 -16 -17 -18 -19 -20 -21
leaf_value=0.012330125977877842 -0.039131700280607869 -0.0058344850158279773 0.31813621554293314 0.37011260206749419 0.0084395208558811895 0.074907193302143682 0.0045658896678937733 0.00031613909481686151 0.19902038179849357 -0.0015302115047247751 -0.059120492781794147 0.13188918659035664 -0.017450072380829119 0.22591555151630416 0.33036437105921745 0.17750621288825691 0.32267585252845349 -0.080607420676349684 0.14994965216036926 0.00063278926097835701
leaf_count=1190 14240 28996 16 17 2240 422 232 13783 17 105 17 65 61 15 28 59 17 15 37 1855
internal_value=0 0.0173668 -0.382815 -0.0570209 0.0595453 0.176186 0.489483 0.0377607 0.165172 0.339878 0.820489 0.221134 1.21975 0.679193 1.78715 1.25188 1.77097 0.832187 0.1616 0.0219526
internal_count=63427 49171 14256 29013 20158 2894 654 17264 3481 1609 317 1292 212 108 104 76 47 30 1227 1872
shrinkage=0.1


Tree=26
num_leaves=21
num_cat=0
split_feature=3 3 73 3 29 40 46 51 68 45 68 74 77 2 9 10 57 25 67 61
split_gain=37.9349 13.8053 10.1612 9.8891 9.73408 8.34907 8.68023 43.7266 42.6167 9.19709 14.1458 9.18912 18.8563 9.73593 12.5638 8.52603 27.2468 21.2614 22.6851 27.4455
threshold=14.500000000000002 56.000000000000007 3.1500000000000008 1.4200000000000002 153.50000000000003 -0.47295321637426851 0.91666666666666663 31.500000000000004 96.500000000000014 54.750000000000007 -1.0000000180025095e-35 1.0000000180025095e-35 9.5000000000000018 14.500000000000002 -0.13003220611916197 75.500000000000014 0.3867521367521361 0.0045783030140410007 4.5000000000000009 0.10717020345657352
decision_type=10 10 2 10 8 2 2 2 2 2 2 2 2 2 2 2 2 2 2 2
left_child=2 4 3 -1 5 6 11 8 -8 10 -9 12 -2 -13 -15 -7 -17 18 19 -18
right_child=1 -3 -4 -5 -6 15 7 9 -10 -11 -12 13 -14 14 -16 16 17 -19 -20 -21
leaf_value=0.080889576250239861 0.48882731925027034 -0.065714171238720628 0.00094498566721367262 0.011987796298911245 -0.03705084691408557 -0.022317356732862142 0.070431947482364352 0.45735307317149881 1.2897107549116409 -0.051232394148726025 0.0017365153132638496 -0.0035691044256027172 0.0082037619783954085 -0.1044705900204282 0.51999884779463701 -0.019221744735635631 0.31490259852746033 -0.037827550886579707 0.16390928635512902 1.235836164113822
leaf_count=117 29 4407 35050 3094 5934 9855 16 28 18 156 54 4045 74 16 19 414 15 32 38 16
internal_value=0 -0.214031 0.0296402 0.141366 -0.172183 -0.100031 0.094606 1.00742 6.80832 0.234532 1.6654 0.0323928 1.55971 -0.00965193 2.67515 -0.186031 0.47753 2.6961 4.32254 7.36249
internal_count=63427 25166 38261 3211 20759 14825 4455 272 34 238 82 4183 103 4080 35 10370 515 101 69 31
shrinkage=0.1


Tree=27
num_leaves=21
num_cat=0
split_feature=3 100 80 57 80 43 1 67 68 59 40 41 29 88 57 78 81 3 43 77
split_gain=33.2575 12.101 11.2418 8.22556 8.32388 13.8948 12.2601 11.2686 16.7646 16.1048 15.8978 20.9377 13.4686 12.3395 13.7324 11.2251 11.2187 9.37512 14.0393 9.29471
threshold=25.000000000000004 3.6250000000000004 6.5000000000000009 0.08893280632411002 6.5000000000000009 0.26747967479674756 5.5000000000000009 4.5000000000000009 50.500000000000007 0.017095265926358006 -0.85185185185185153 0.20881782945736405 35.500000000000007 15.500000000000002 0.51000000000000012 25.450000000000003 0.3585714285714286 21.500000000000004 0.42678571428571405 6.5000000000000009
decision_type=10 8 2 2 2 2 2 2 2 2 2 2 8 2 2 2 2 8 2 2
left_child=1 2 -1 -3 -5 7 17 -6 9 -9 11 12 16 14 15 -12 19 -7 -19 -11
right_child=-2 3 -4 4 5 6 -8 8 -10 10 13 -13 -14 -15 -16 -17 -18 18 -20 -21
leaf_value=0.012879326618347859 -0.034046912827195464 -0.027009938012748137 -0.014198889414404146 -0.0024653820086069987 0.014366794678073284 0.0029983889900419042 -0.060337834511518584 0.32714392829349093 -0.00030959056361608332 0.20433968942359071 0.10427626299201803 0.53310748413509079 0.34836523022230914 -0.037545753315770064 0.34925535961355209 -0.11359652712519999 0.26775400014023587 0.55091828764295891 -0.10363724490513793 -0.11522252050958211
leaf_count=5736 14256 1671 865 36507 1692 1338 439 39 334 15 191 18 26 143 22 38 22 19 17 39
internal_value=0 0.0141008 0.0940396 -0.0164174 -0.00738496 0.13167 -0.0826413 0.300984 0.635829 1.01956 0.852153 1.93991 1.32512 0.484611 0.967323 0.681669 0.591163 0.0566668 2.69178 -0.256397
internal_count=63427 49171 6601 42570 40899 4392 1813 2579 887 553 514 120 102 394 251 229 76 1374 36 54
shrinkage=0.1


Tree=28
num_leaves=21
num_cat=0
split_feature=3 40 73 3 73 61 20 3 8 99 25 36 43 3 29 51 9 28 34 85
split_gain=28.2454 9.37725 15.8801 11.3369 14.3096 9.62609 9.25408 9.17297 9.06868 15.9492 16.0578 14.7469 12.2303 21.6304 24.4536 12.7573 9.17241 12.7201 11.9633 12.7183
threshold=19.500000000000004 -0.24999999999999947 13.500000000000002 1.6600000000000001 6.5500000000000007 0.072637635486797011 0.58738131101528823 56.000000000000007 -0.061862244897958996 11.050000000000002 0.16520580226990952 119174207.50000001 0.18090909090909055 5.6250000000000009 70.500000000000014 33.500000000000007 -0.021980676328501998 0.021604720525216007 0.15075757575757553 0.14758001561280204
decision_type=10 2 2 10 2 2 2 10 2 2 2 2 2 10 8 2 2 2 2 2
left_child=1 6 3 4 -3 -5 8 -2 -1 10 12 16 13 -10 -15 -14 -11 -18 -19 -20
right_child=7 2 -4 5 -6 -7 -8 -9 9 11 -12 -13 15 14 -16 -17 17 18 19 -21
leaf_value=0.0044506082705044678 -0.01925193615598533 0.072949221214068438 -0.029399855258639796 -0.016991105893409825 -0.045674418907718166 0.00165829255854097 -0.064052298927136958 -0.061926583147108277 0.10790942157485964 -0.0084760069810062739 -0.066657084776338096 -0.082359925546742402 0.20965151524633369 0.67059389344204412 0.068487387404827252 0.038291610137362944 0.01927138899220324 0.037764983100712385 0.27353788592219974 0.047827220593759573
leaf_count=20893 14246 259 3678 3610 135 14537 120 4407 46 478 35 104 31 26 18 199 472 71 39 23
internal_value=0 0.0173999 -0.0314623 -0.0034672 0.442333 -0.0164922 0.05736 -0.250623 0.062379 0.255813 0.746377 0.109277 0.969079 1.85253 4.27165 0.655042 0.201809 0.407749 1.06186 1.84334
internal_count=63427 44774 22219 18541 394 18147 22555 18653 22435 1542 355 1187 320 90 44 230 1083 605 133 62
shrinkage=0.1


Tree=29
num_leaves=21
num_cat=0
split_feature=3 3 73 13 2 23 9 29 87 41 5 7 83 67 63 36 85 87 60 44
split_gain=24.4696 11.7076 9.71453 9.63704 9.48901 13.2034 18.7646 27.5481 14.4219 13.2021 15.2954 9.69462 9.33507 14.4623 18.8152 12.1557 11.4672 15.2603 18.4998 16.578
threshold=32.500000000000007 9.7500000000000018 7.2500000000000009 0.26941542389699508 7.5000000000000009 0.032261307273190008 -0.079772727272726981 31.500000000000004 0.32330316742081405 0.19821428571428554 0.13392857142857104 0.22611077297626256 0.12323803851498853 8.5000000000000018 4.5277777777777786 119346502.50000001 0.08260671771931101 0.91960773294368869 0.26726190476190409 0.32520564042303157
decision_type=10 10 2 2 2 2 2 10 2 2 2 2 2 2 2 2 2 2 2 2
left_child=1 -1 -2 -4 11 -6 7 8 -7 -8 -11 12 13 -3 15 -15 -14 18 -18 -19
right_child=2 4 3 -5 5 6 9 -9 -10 10 -12 -13 16 14 -16 -17 17 19 -20 -21
leaf_value=0.0033542494637221368 0.33758024778064888 -0.0087694070796434029 -0.042462615773007431 0.33300075834916376 -0.026487302123514356 0.46702612928278103 -0.042128933385013022 0.61664680885138146 0.023135133844535548 0.40255547470318853 0.019885341115908648 -0.022960077837254893 -0.051741274146399036 0.037736455257130208 0.50412171091556446 0.39579791728134495 0.050371489324263309 -0.0083462890834529232 0.27355642416182263 0.25299929939941346
leaf_count=29030 27 8356 9796 25 7942 17 313 21 82 27 58 3437 414 428 16 24 1698 1606 58 52
internal_value=0 0.00781009 -0.391906 -0.408232 -0.0820238 -0.211567 0.446128 1.90997 0.94168 -0.00787098 1.47389 -0.0170696 0.0436613 -0.0423626 0.756671 0.551809 0.229423 0.312465 0.604339 -0.00174686
internal_count=63427 53579 9848 9821 24549 8460 518 120 99 398 85 16089 12652 8824 468 452 3828 3414 1756 1658
shrinkage=0.1


Tree=30
num_leaves=21
num_cat=0
split_feature=73 100 90 13 28 25 88 29 40 24 43 84 91 71 57 73 59 95 68 25
split_gain=21.2966 11.7118 11.3634 16.3762 17.7037 19.7346 13.973 10.8771 10.0106 9.73232 21.8386 26.5194 9.69681 16.2831 14.2474 16.8023 13.9553 10.9975 13.2554 12.3046
threshold=22.000000000000004 56.000000000000007 0.27525252525252458 0.068215923542350523 0.095002987779817513 0.0040727855536110006 11.500000000000002 6.5000000000000009 0.50000000000000056 0.026804286985322005 0.18090909090909055 0.19163509180996754 0.30495169082125556 6595.0000000000009 0.19523809523809504 7.7500000000000009 0.047431571053617512 0.91666666666666663 -50.499999999999993 0.28659680289162909
decision_type=2 8 2 2 2 2 2 8 2 2 2 2 2 2 2 2 2 2 2 2
left_child=8 2 9 -4 5 -5 -7 -3 -1 -2 11 -11 17 14 15 -14 -16 -10 -19 -20
right_child=1 7 3 4 -6 6 -8 -9 12 10 -12 -13 13 -15 16 -17 -18 18 19 -21
leaf_value=0.003668773962327248 -0.024742571031890721 0.50396119268795869 0.013957624854039223 -0.10469493350017003 -0.03439545852168898 0.75558999447491226 0.11258396584319069 -0.071580769422775567 -0.016294335836511738 -0.1046302904627773 -0.060232291264881638 0.77023529715641903 0.45280580898495987 0.0020276522103299223 0.44018736318160312 -0.10657491997022304 0.034625066727448438 -0.071891272604671361 0.10894033754448731 -0.057653689197642966
leaf_count=36285 9165 27 618 17 37 22 16 3948 9469 17 61 21 17 3203 16 17 125 86 231 29
internal_value=0 -0.245381 -0.166492 0.506816 2.43997 4.16686 5.8323 -0.679624 0.0128071 -0.224825 1.39251 4.37602 -0.0731842 0.0729406 1.04559 3.09239 0.619271 -0.135815 0.41078 0.745366
internal_count=63427 13949 9974 710 92 55 38 3975 49478 9264 99 38 13193 3378 175 34 141 9815 346 260
shrinkage=0.1


Tree=31
num_leaves=21
num_cat=0
split_feature=73 100 73 63 63 80 6 60 51 87 68 11 78 61 28 45 60 35 40 68
split_gain=17.9861 10.5595 9.73671 8.9381 17.3116 11.4656 10.0651 8.57597 22.0242 8.33285 12.8162 11.9573 10.1836 24.3141 9.21474 9.53199 15.0756 8.59189 8.25982 9.00953
threshold=22.000000000000004 56.000000000000007 1.2250000000000003 0.57259953161592458 0.59807692307692317 9.5000000000000018 0.74342105263157865 0.28692493946731207 63.500000000000007 1.7834821428571428 -598.49999999999989 0.0079805378469585027 21.850000000000005 0.06157491797302151 0.045448232792127015 55.250000000000007 0.068337484433374521 0.32247899159663806 0.50000000000000056 89.500000000000014
decision_type=2 8 2 2 2 2 2 2 2 2 2 2 2 2 2 2 2 2 2 2
left_child=2 3 -1 9 -5 6 7 -6 -9 14 -11 12 -12 -14 -2 -16 -17 -15 19 -4
right_child=1 -3 18 4 5 -7 -8 8 -10 10 11 -13 13 17 15 16 -18 -19 -20 -21
leaf_value=0.17501124949231542 -0.035208261638175656 -0.06556154352915361 0.006781800601376892 0.53576053000161106 -0.0044424318429725799 0.31804448341467667 0.42102950448097537 -0.10514599913709599 0.58566430291767835 0.60094689996978479 -0.10516865992316103 0.41845947349083046 0.68816270680883695 -0.06956430744587952 -0.051973328275433266 0.66348268198427185 0.087524266996805766 0.32394966600869407 -0.0068152056582139343 -0.0033715167765615696
leaf_count=26 6632 3975 23503 19 2831 24 23 33 18 15 140 20 21 81 46 15 36 20 13183 12766
internal_value=0 -0.228291 0.0114333 -0.154403 0.109133 0.0719354 0.0300447 0.00233043 2.1276 -0.273351 0.645858 0.391405 0.0397906 1.17696 -0.319494 1.19204 2.60249 0.116263 0.0102853 0.031887
internal_count=63427 13949 49478 9974 2948 2929 2905 2882 51 7026 297 282 262 122 6729 97 51 101 49452 36269
shrinkage=0.1


Tree=32
num_leaves=21
num_cat=0
split_feature=3 3 41 59 2 28 96 91 71 40 44 13 40 57 8 36 45 81 83 29
split_gain=16.1649 8.66535 8.46054 8.57869 7.783 9.37871 12.2859 20.814 16.0599 18.9967 23.778 11.2265 8.38042 7.80585 12.9498 18.4514 12.6228 12.2059 14.1207 8.76377
threshold=10.500000000000002 64.000000000000014 0.78319623971797869 0.08241358399029651 7.5000000000000009 0.011984187513434002 0.18333333333333304 0.4686274509803916 120312.50000000001 -0.26315789473684148 0.19836065573770453 0.31398763961076959 -0.9279953917050684 0.17519181585677704 0.97932651321398112 118494701.50000001 52.250000000000007 0.59545454545454513 0.17146038816417405 37.500000000000007
decision_type=10 10 2 2 2 2 2 2 2 2 2 2 2 2 2 2 2 2 2 10
left_child=-1 2 4 -4 5 6 13 8 12 10 -10 -7 -8 14 17 -16 -15 -2 -19 -18
right_child=1 -3 3 -5 -6 11 7 -9 9 -11 -12 -13 -14 16 15 -17 19 18 -20 -21
leaf_value=0.002517729769636835 -0.030730257047457896 -0.05744659398839215 -0.10499866129082643 0.4036026857557195 -0.021713963633277693 -0.042734925655100384 0.25618217098873508 0.56628302813171671 0.7138124178749411 0.019213907926087251 0.01675837492315663 0.24371403442644557 -0.085933966057244265 0.40473861574737652 -0.10364383954526722 0.82423278974955783 0.012531785624217806 0.69293663997237642 0.017835080332130153 -0.015591300313382224
leaf_count=31128 3452 3640 15 17 10102 1539 22 22 26 75 20 21 164 21 15 15 8514 16 19 4584
internal_value=0 -0.110994 -0.0941059 2.29936 -0.0974151 -0.0364722 0.00291131 1.02449 0.63622 2.08389 4.33591 -0.37336 -0.404001 -0.0160911 -0.245519 3.62715 0.0386672 -0.27345 2.75994 0.0323897
internal_count=63427 32299 28659 32 28627 18525 16965 329 307 121 46 1560 186 16636 3517 30 13119 3487 35 13098
shrinkage=0.1


Tree=33
num_leaves=21
num_cat=0
split_feature=3 73 3 29 60 3 41 8 59 8 76 22 78 88 0 51 2 34 90 72
split_gain=14.0742 7.63087 8.0049 7.84771 10.3848 11.8561 10.4202 9.56419 9.08324 8.41269 7.99342 10.5035 7.53148 7.52715 14.2344 7.43411 11.6609 20.7497 10.5212 16.0889
threshold=25.000000000000004 2.9500000000000006 1.3650000000000002 10.500000000000002 0.10275263951734502 3.0250000000000004 0.21320346320346303 0.05634920634920601 0.07259552042160701 -0.22996794871794798 0.4852941176470586 0.34014206691056309 16.950000000000003 1.0000000180025095e-35 15.15 45.500000000000007 13.500000000000002 0.31142241379310304 0.86607142857142871 7.5000000000000009
decision_type=10 2 10 10 2 8 2 2 2 2 2 2 2 2 2 2 2 2 2 2
left_child=1 2 -1 4 8 6 7 9 12 -6 -5 13 -4 14 -12 16 -2 -18 -17 -20
right_child=15 -3 3 10 5 -7 -8 -9 -10 -11 11 -13 -14 -15 -16 18 17 -19 19 -21
leaf_value=0.086678232472449823 -0.0052224095460042599 -0.00061489234283351084 0.18683728986056855 0.011757782809071126 -0.010826792813949625 0.20658905862628851 -0.051744040508214587 -0.021963535274254608 -0.054464642383233945 0.11974190322857919 0.21197049080842711 0.072586784773855023 0.012467686097207111 -0.039979085599636505 -0.046222677109034556 -0.039358943018508286 -0.03044445110625927 0.56569095143462123 -0.048787162770054737 0.40328527852150692
leaf_count=79 4294 46624 16 1618 26 30 36 39 81 110 17 46 52 374 23 9706 90 28 92 46
internal_value=0 0.0078751 0.117561 0.0985624 0.374262 0.638212 0.486924 0.695961 -0.0785429 0.950231 0.0466624 -0.197545 0.530491 -0.307053 0.567027 -0.23852 0.0171189 2.18687 -0.358099 1.43117
internal_count=63427 49171 2547 2468 390 241 211 175 149 136 2078 460 68 414 40 14256 4412 118 9844 138
shrinkage=0.1


Tree=34
num_leaves=21
num_cat=0
split_feature=3 25 59 29 83 63 61 83 59 84 26 36 51 34 82 50 100 6 59 22
split_gain=12.3685 9.24 8.26283 10.2284 10.0544 12.0799 14.6224 10.78 9.39523 9.36365 9.24559 9.12238 11.2217 10.647 8.91503 12.215 11.4936 10.0966 11.9951 11.0384
threshold=13.500000000000002 0.31703180036179607 0.092653912190335516 13.500000000000002 0.24374609130706656 1.2029411764705882 0.11938319015004502 0.20554346434515405 0.17917488031540355 0.35355392156862708 0.14912093218448905 118946504.50000001 58.500000000000007 0.5645833333333331 0.31414473684210503 0.41666666666666657 4.8250000000000002 0.24876237623762354 0.12467616580310852 0.055647776653171013
decision_type=10 2 2 10 2 2 2 2 2 2 2 2 2 2 2 2 8 2 2 2
left_child=2 -2 -1 4 7 -6 -7 10 -8 14 11 -4 -13 -14 -5 16 -16 -18 -19 -20
right_child=1 -3 3 9 5 6 8 -9 -10 -11 -12 12 13 -15 15 -17 17 18 19 -21
leaf_value=-0.0041538577934660302 -0.012876337578880882 0.20911818692349682 0.018452344071413249 0.0019560504510067462 0.028136570266189133 0.30045746860472461 -0.12264998393333602 -0.039801239575017369 0.12709005534769308 -0.029627350733541405 0.075031799580966049 -0.045943931661272676 0.011663581567412668 0.21428122913187533 0.10274706207603064 -0.070119987008311027 -0.1125343510948075 0.29843948805718273 -0.11295025299237066 0.21119975102509536
leaf_count=14196 26588 24 3817 16485 226 26 17 260 39 667 141 404 200 18 139 45 63 20 36 16
internal_value=0 -0.123122 0.0165007 0.0484386 0.157638 0.626695 1.4451 0.125193 0.70583 0.0158626 0.158536 0.131641 -0.178809 0.315628 0.029408 0.455927 0.676311 -0.137142 0.705004 -0.0983905
internal_count=63427 26612 36815 22619 5148 308 82 4840 56 17471 4580 4439 622 218 16804 319 274 135 72 52
shrinkage=0.1


Tree=35
num_leaves=21
num_cat=0
split_feature=3 29 57 57 14 35 45 81 22 22 64 44 81 10 51 56 66 9 1 28
split_gain=11.5517 13.6977 24.4014 7.70778 10.7786 10.3131 10.2375 10.9625 9.15787 11.4517 12.104 9.25144 9.08329 10.1821 10.7252 8.85096 8.81244 13.4808 16.9329 12.8667
threshold=34.500000000000007 694.50000000000011 0.23904761904761904 0.35504201680672259 0.18227101509626706 0.3717105263157891 55.250000000000007 0.31909090909090904 0.46566614381957161 0.55168605478142918 0.56273148148148155 0.24780701754385953 0.13188405797101402 63.500000000000007 27.500000000000004 1.0000000180025095e-35 1.0000000180025095e-35 0.11834733893557402 8.5000000000000018 0.18628168394256303
decision_type=10 10 2 2 2 2 2 2 2 2 2 2 2 2 2 2 2 2 2 2
left_child=3 -2 -3 -1 8 6 7 -6 12 10 -10 -11 13 -5 -15 -7 17 -14 -19 -18
right_child=1 2 -4 4 5 15 -8 -9 9 11 -12 -13 16 14 -16 -17 19 18 -20 -21
leaf_value=-0.0032081359151451294 -0.033683607759270734 -0.10127194843097032 1.2988383134140296 -0.041308413674837396 0.23647027589003994 -0.0032151244774734351 -0.069066207529794907 -0.014424906615844699 -0.047995378110681108 -0.082134845216808569 0.14880688643667306 0.13072293619930131 0.008509902999147478 0.31332870429116988 0.022364950827814499 0.1536239253371427 -0.0049599119156592411 0.039769706371372969 0.43182659093878462 0.034585271321970389
leaf_count=32471 8831 25 15 1050 22 121 384 69 22 49 77 18 10290 18 164 26 7579 1691 22 483
internal_value=0 -0.31412 4.84979 0.00400353 0.0460928 -0.301068 -0.512655 0.404624 0.0593466 0.616147 1.07719 -0.235742 0.0520575 -0.263274 0.511267 0.264738 0.0649906 0.120099 0.432859 -0.00975104
internal_count=63427 8871 40 54556 22085 622 475 91 21463 166 99 67 21297 1232 182 147 20065 12003 1713 8062
shrinkage=0.1


Tree=36
num_leaves=21
num_cat=0
split_feature=73 22 10 0 13 3 28 89 10 99 5 99 3 41 82 67 25 85 71 57
split_gain=10.2037 8.95164 11.7922 15.9613 11.1405 10.1048 8.90649 18.7466 8.29273 16.4482 9.15813 14.21 50.4349 23.2979 11.352 20.3799 16.643 25.2567 12.9836 10.6091
threshold=22.000000000000004 0.003674863004721501 8.5000000000000018 1.6500000000000004 0.31398763961076959 15.500000000000002 0.045448232792127015 0.18898809523809504 81.500000000000014 7.2000000000000011 0.13392857142857104 32.500000000000007 43.500000000000007 0.21525096525096504 0.040833333333333006 7.5000000000000009 0.0011303363247785003 0.13087804637215653 108920.00000000001 0.16333333333333303
decision_type=2 2 2 2 2 10 2 2 2 2 2 2 8 2 2 2 2 2 2 2
left_child=-1 4 3 -3 6 -4 -2 -8 10 -10 11 14 13 -13 -7 19 -17 18 -18 -16
right_child=1 2 5 -5 -6 8 7 -9 9 -11 -12 12 -14 -15 15 16 17 -19 -20 -21
leaf_value=0.00082602018062451113 -0.030165135074323508 -0.0091098197263636584 -0.065898968058882859 0.57663508354738779 0.31872328151822071 -0.049893073604286291 0.039415133629139038 0.67798532847374837 0.6280806545814891 0.06149890045088148 -0.03533463203975469 -0.10391584405982841 1.4614702248354094 0.68691201995317952 0.23411395283296579 -0.0061685988828883561 0.41321061572998785 -0.10287277061567442 1.0069763726358745 -0.016306891945095176
leaf_count=49478 11539 30 225 22 16 440 108 15 16 67 768 54 24 19 93 38 21 24 19 411
internal_value=0 -0.17766 0.161665 2.63502 -0.261614 0.0851671 -0.274438 1.02962 0.309779 1.97547 0.202571 0.580152 2.99 1.04992 0.353206 0.914212 3.21809 4.89408 7.02222 0.296447
internal_count=63427 13949 2271 52 11678 2219 11662 123 1994 83 1911 1143 97 73 1046 606 102 64 40 504
shrinkage=0.1


Tree=37
num_leaves=21
num_cat=0
split_feature=3 85 2 6 40 73 3 73 67 20 71 34 8 33 51 59 36 68 75 71
split_gain=9.43907 7.4024 20.9477 41.8754 7.18621 10.5383 8.67995 15.7905 10.8471 7.54721 7.38552 7.27919 6.61078 11.4188 9.76377 10.224 8.62276 8.972 10.4903 9.40078
threshold=34.500000000000007 0.20373272959479805 8.5000000000000018 0.16247642991829003 -0.24999999999999947 13.500000000000002 1.5250000000000001 6.5500000000000007 4.5000000000000009 0.58738131101528823 44420.000000000007 0.59411764705882375 -0.071946169772256499 1702.5000000000002 52.500000000000007 0.11499338826162102 118773504.50000001 511.00000000000006 0.39565217391304358 166237.50000000003
decision_type=10 2 2 2 2 2 10 2 2 2 2 2 2 2 2 2 2 2 2 2
left_child=4 -2 -3 -4 9 6 7 8 11 12 -10 -6 -1 -14 15 16 17 18 19 -15
right_child=1 2 3 -5 5 -7 -8 -9 10 -11 -12 -13 13 14 -16 -17 -18 -19 -20 -21
leaf_value=0.0023598378380371471 -0.03275217095954417 -0.044424787903381821 1.7713478927371726 0.098473411120500079 0.08553625220259875 -0.020215804072688973 -0.0019406343283061241 -0.043369032933196904 0.0964974261416192 -0.060176856089755607 0.38603501380485061 -0.1015111062371265 0.025034811189929097 0.19221596860830903 -0.066647579336887697 -0.051036308679760403 -0.06639407525683455 -0.068878074094208278 0.41031176163796595 -0.075812303583111751
leaf_count=23334 8692 124 16 39 143 8868 19265 135 15 121 15 18 2215 41 231 83 22 19 15 16
internal_value=0 -0.289307 1.42979 5.99158 0.00331778 -0.0378108 -0.0100789 0.460296 0.919457 0.0377552 2.54037 0.656146 0.0420287 0.172787 -0.261652 0.208164 0.80701 1.25934 1.72398 1.17303
internal_count=63427 8871 179 55 54556 28459 19591 326 191 26097 30 161 25976 2642 427 196 113 91 72 57
shrinkage=0.1


Tree=38
num_leaves=21
num_cat=0
split_feature=73 3 100 29 67 77 8 0 59 21 61 29 59 72 64 59 87 71 25 22
split_gain=8.43077 13.1904 13.0135 8.29341 8.24891 13.7573 20.8413 22.8654 10.3864 10.2812 13.2541 9.28635 9.17414 13.9439 14.4902 9.22742 16.9636 13.5194 9.89045 8.79805
threshold=6.2500000000000009 1.4200000000000002 64.000000000000014 6.5000000000000009 1.5000000000000002 5.5000000000000009 0.067117117117116515 2.9500000000000006 0.52777777777777757 0.12580165654031253 0.11295918484963703 14.500000000000002 0.18533452807646303 7.5000000000000009 3.6273148148148149 0.18933143669985755 0.54583651642475173 26452.500000000004 0.0036836486339360008 0.022437394868865503
decision_type=2 10 8 8 2 2 2 2 2 2 2 8 2 2 2 2 2 2 2 2
left_child=1 -1 4 -4 5 6 11 -8 -6 12 -11 -2 -7 14 15 16 -14 -18 -19 -17
right_child=2 -3 3 -5 8 9 7 -9 -10 10 -12 -13 13 -15 -16 19 17 18 -20 -21
leaf_value=0.065769845596488449 0.2321649662074218 0.0029315743382618028 0.40696519219241101 -0.053986730608906464 0.00081035862413312036 -0.016532279156789856 0.039577372901000996 0.62114005660288907 0.22629689048440041 0.012219305417097932 0.36233177316420756 -0.0011166976769184603 -0.1087643286448316 -0.06295633294609615 0.37570490895880837 0.035823277726407199 0.52003859417457976 -0.11433151209753467 0.31924104088100602 -0.061953107382065047
leaf_count=228 21 16148 24 3906 26521 15005 23 19 28 38 18 144 29 269 21 811 22 17 15 120
internal_value=0 0.0375605 -0.0431115 -0.508965 -0.032376 -0.107201 0.775875 3.32592 0.0109672 -0.1239 1.34129 0.30384 -0.131564 0.166788 0.355902 0.298961 1.58743 2.81452 1.21506 0.201642
internal_count=63427 16376 47051 3930 43121 16572 207 42 26549 16365 56 165 16309 1304 1035 1014 83 54 32 931
shrinkage=0.1


Tree=39
num_leaves=21
num_cat=0
split_feature=73 3 78 29 58 72 84 84 78 2 51 36 81 78 19 0 41 72 3 13
split_gain=7.61557 7.94309 7.93111 22.5462 6.51505 10.5602 13.1591 7.68006 9.4222 11.6421 11.4353 11.1428 16.3777 8.79095 19.2694 17.6503 11.5201 15.7551 24.102 9.86714
threshold=1.2250000000000003 64.000000000000014 8.5500000000000025 722.50000000000011 1.0000000180025095e-35 9.5000000000000018 0.082521517071786024 0.32993197278911507 25.050000000000004 9.5000000000000018 53.500000000000007 118463605.50000001 0.31414473684210503 27.750000000000004 0.094974760843377012 0.35000000000000009 0.08220720720720702 2.5000000000000004 22.500000000000004 0.13934687596976805
decision_type=2 10 2 8 2 2 2 2 2 2 2 2 2 2 2 2 2 2 10 2
left_child=-1 4 3 -3 5 7 -7 13 9 11 -11 12 -9 -2 15 16 -15 18 -18 -17
right_child=1 2 -4 -5 -6 6 -8 8 -10 10 -12 -13 -14 14 -16 19 17 -19 -20 -21
leaf_value=0.16761924873290268 -0.019764173129052924 -0.10140108252028338 -0.056110502301709358 1.5135314035473504 0.0011153762659100027 0.54720188614043563 -0.009476280844466731 0.36533653083666251 -0.087721086068208734 0.65919300845638884 0.13684623432039481 -0.02751518972827215 0.022559669961485722 -0.051213751137536324 0.10063762715109142 -0.039607520794256584 0.31197764658791732 0.026718911492529404 1.3123789609542635 0.22106424055412954
leaf_count=26 6220 29 3592 15 52166 17 15 32 62 15 15 98 40 37 167 782 20 45 15 19
internal_value=0 -0.00371884 -0.503645 3.86608 -0.00064801 -0.107998 2.36426 -0.116384 0.507933 0.866558 3.23404 0.54018 1.57229 -0.140618 0.174862 -0.134925 1.64267 2.69787 4.60367 -0.317112
internal_count=63427 63401 3636 44 59765 7599 32 7567 262 200 30 170 72 7305 1085 918 117 80 35 801
shrinkage=0.1


end of trees

feature importances:
bettingOdds=134
rating=32
bettingOds=30
flucsRatioROC=26
daysSinceLastStart=23
jockeyLast3Months=22
jockeyLastMonth=18
API=17
flucsReversionRatio=17
changeInOddsMorning=16
changeInOddsNightBefore=16
compWinIndexLTM=16
jockeyLastYear=16
eventID=15
jockeyTrainerCombinedIndex=15
jockeyLast25PlaceStrikeRate=14
lastStart=14
lastStartDistanceChange=14
temperature=14
jockeyTrend=13
bar=12
careerPlace=12
trainerLast3Months=12
class=11
compBetterPerformIndexLTM=11
humidity=11
prizeMoney=11
trainerLastMonth=11
trainerLastYear=11
trainerTrend=11
windspeed=10
compPlaceIndexTrackLTM=9
trackRating=9
compPlaceIndexLTM=8
distance=8
goodPlace=8
raceNum=8
trainerLast25StrikeRate=8
venue=8
compWinIndexTrackLTM=7
distancePlace=7
goodWin=7
hcp=7
slowPlace=6
trainerLast25PlaceStrikeRate=6
venuePlace=6
lastFourRacesWinPerc=5
venueDistanceWin=5
careerFirstUpWin=4
careerWin=4
compBetterPerformIndexTrackL3M=4
compWinIndexL3M=4
jockeyLast25StrikeRate=4
starters=4
age=3
careerFirstUpPlace=3
compPlaceIndexTrackL3M=3
heavyWin=3
venueWin=3
compBetterPerformIndexL3M=2
compBetterPerformIndexTrackLTM=2
compPlaceIndexL3M=2
compWinIndexLM=2
distanceWin=2
heavyPlace=2
jockeyClaim=2
jockeyHorseTrend=2
sex=2
slowWin=2
venueDistancePlace=2
winBarrierLTM=2
compPlaceIndexTrackLM=1
compWinIndexTrackL3M=1
fastPlace=1
horseTrend=1
jockeyHorseLast3Months=1
lastFourRacesPlacePerc=1
weather=1
winBarrierDistanceLTM=1
winBarrierTrackDistanceLTM=1
winPerformAtWeight=1

parameters:
[boosting: gbdt]
[objective: binary]
[metric: binary,none]
[tree_learner: serial]
[device_type: cpu]
[data: ]
[valid: ]
[num_iterations: 100]
[learning_rate: 0.1]
[num_leaves: 21]
[num_threads: -1]
[max_depth: -1]
[min_data_in_leaf: 15]
[min_sum_hessian_in_leaf: 0.001]
[bagging_fraction: 1]
[bagging_freq: 0]
[bagging_seed: 5105]
[feature_fraction: 1]
[feature_fraction_seed: 2938]
[early_stopping_round: 0]
[max_delta_step: 0]
[lambda_l1: 0]
[lambda_l2: 0]
[min_gain_to_split: 0]
[drop_rate: 0.1]
[max_drop: 50]
[skip_drop: 0.5]
[xgboost_dart_mode: 0]
[uniform_drop: 0]
[drop_seed: 27056]
[top_rate: 0.2]
[other_rate: 0.1]
[min_data_per_group: 100]
[max_cat_threshold: 32]
[cat_l2: 10]
[cat_smooth: 10]
[max_cat_to_onehot: 4]
[top_k: 20]
[monotone_constraints: ]
[feature_contri: ]
[forcedsplits_filename: ]
[refit_decay_rate: 0.9]
[verbosity: 3]
[max_bin: 255]
[min_data_in_bin: 3]
[bin_construct_sample_cnt: 200000]
[histogram_pool_size: -1]
[data_random_seed: 87]
[output_model: LightGBM_model.txt]
[snapshot_freq: -1]
[input_model: ]
[output_result: LightGBM_predict_result.txt]
[initscore_filename: ]
[valid_data_initscores: ]
[pre_partition: 0]
[enable_bundle: 1]
[max_conflict_rate: 0]
[is_enable_sparse: 1]
[sparse_threshold: 0.8]
[use_missing: 1]
[zero_as_missing: 0]
[two_round: 0]
[save_binary: 0]
[enable_load_from_binary_file: 1]
[header: 0]
[label_column: ]
[weight_column: ]
[group_column: ]
[ignore_column: ]
[categorical_feature: ]
[predict_raw_score: 0]
[predict_leaf_index: 0]
[predict_contrib: 0]
[num_iteration_predict: -1]
[pred_early_stop: 0]
[pred_early_stop_freq: 10]
[pred_early_stop_margin: 10]
[convert_model_language: ]
[convert_model: gbdt_prediction.cpp]
[num_class: 1]
[is_unbalance: 0]
[scale_pos_weight: 1]
[sigmoid: 1]
[boost_from_average: 1]
[reg_sqrt: 0]
[alpha: 0.9]
[fair_c: 1]
[poisson_max_delta_step: 0.7]
[tweedie_variance_power: 1.5]
[max_position: 20]
[label_gain: ]
[metric_freq: 1]
[is_provide_training_metric: 0]
[eval_at: ]
[num_machines: 1]
[local_listen_port: 12400]
[time_out: 120]
[machine_list_filename: ]
[machines: ]
[gpu_platform_id: -1]
[gpu_device_id: -1]
[gpu_use_dp: 0]

end of parameters

pandas_categorical:[]
